{"learner":{"attributes":{"scikit_learn":"{\"_estimator_type\": \"classifier\"}"},"feature_names":[],"feature_types":[],"gradient_booster":{"model":{"gbtree_model_param":{"num_parallel_tree":"1","num_trees":"500"},"iteration_indptr":[0,5,10,15,20,25,30,35,40,45,50,55,60,65,70,75,80,85,90,95,100,105,110,115,120,125,130,135,140,145,150,155,160,165,170,175,180,185,190,195,200,205,210,215,220,225,230,235,240,245,250,255,260,265,270,275,280,285,290,295,300,305,310,315,320,325,330,335,340,345,350,355,360,365,370,375,380,385,390,395,400,405,410,415,420,425,430,435,440,445,450,455,460,465,470,475,480,485,490,495,500],"tree_info":[0,1,2,3,4,0,1,2,3,4,0,1,2,3,4,0,1,2,3,4,0,1,2,3,4,0,1,2,3,4,0,1,2,3,4,0,1,2,3,4,0,1,2,3,4,0,1,2,3,4,0,1,2,3,4,0,1,2,3,4,0,1,2,3,4,0,1,2,3,4,0,1,2,3,4,0,1,2,3,4,0,1,2,3,4,0,1,2,3,4,0,1,2,3,4,0,1,2,3,4,0,1,2,3,4,0,1,2,3,4,0,1,2,3,4,0,1,2,3,4,0,1,2,3,4,0,1,2,3,4,0,1,2,3,4,0,1,2,3,4,0,1,2,3,4,0,1,2,3,4,0,1,2,3,4,0,1,2,3,4,0,1,2,3,4,0,1,2,3,4,0,1,2,3,4,0,1,2,3,4,0,1,2,3,4,0,1,2,3,4,0,1,2,3,4,0,1,2,3,4,0,1,2,3,4,0,1,2,3,4,0,1,2,3,4,0,1,2,3,4,0,1,2,3,4,0,1,2,3,4,0,1,2,3,4,0,1,2,3,4,0,1,2,3,4,0,1,2,3,4,0,1,2,3,4,0,1,2,3,4,0,1,2,3,4,0,1,2,3,4,0,1,2,3,4,0,1,2,3,4,0,1,2,3,4,0,1,2,3,4,0,1,2,3,4,0,1,2,3,4,0,1,2,3,4,0,1,2,3,4,0,1,2,3,4,0,1,2,3,4,0,1,2,3,4,0,1,2,3,4,0,1,2,3,4,0,1,2,3,4,0,1,2,3,4,0,1,2,3,4,0,1,2,3,4,0,1,2,3,4,0,1,2,3,4,0,1,2,3,4,0,1,2,3,4,0,1,2,3,4,0,1,2,3,4,0,1,2,3,4,0,1,2,3,4,0,1,2,3,4,0,1,2,3,4,0,1,2,3,4,0,1,2,3,4,0,1,2,3,4,0,1,2,3,4,0,1,2,3,4,0,1,2,3,4,0,1,2,3,4,0,1,2,3,4,0,1,2,3,4,0,1,2,3,4,0,1,2,3,4,0,1,2,3,4,0,1,2,3,4,0,1,2,3,4,0,1,2,3,4,0,1,2,3,4,0,1,2,3,4,0,1,2,3,4,0,1,2,3,4],"trees":[{"base_weights":[-4.114369E-3,3.4120733E-1,-5.489966E-3,-1.7667843E-2,6.151711E-1,-7.724649E-2,-6.916539E-4,2.6027396E-1,-1.3732833E-1,-0E0,8.7385017E-1,-9.858433E-2,1.4301844E-1,9.1778494E-2,-4.8859892E-3,6.5088755E-1,-3.3485538E-1,-2.3569022E-1,1.9178082E-1,2.303523E-1,1.3908873E0,-1.1108202E-1,4.3999997E-1,8.2098514E-2,9.459459E-1,-2.9100528E-1,1.11177064E-1,-4.9457368E-2,4.549449E-3,-4.7619045E-2,3.033708E-1,-8.600337E-2,7.865169E-2,1.1340206E-1,-1.11111104E-1,1.7391305E-1,-4.72103E-2,-0E0,3.076923E-1,-2.3387186E-2,1.291866E-1,-4.4982698E-2,1.8836564E-1,7.0568696E-3,2.1238938E-1,2.7586207E-1,-7.692307E-2,1.0526315E-1,-1.01182655E-1,1.3279678E-1,1.9161543E-2,3.5875838E-3,-1.4540884E-2,1.7249882E-3,-1.705618E-2],"categories":[],"categories_nodes":[],"categories_segments":[],"categories_sizes":[],"default_left":[0,0,0,0,0,0,0,0,0,0,0,0,0,0,0,0,0,0,0,0,0,0,0,0,0,0,0,0,0,0,0,0,0,0,0,0,0,0,0,0,0,0,0,0,0,0,0,0,0,0,0,0,0,0,0],"id":0,"left_children":[1,3,5,7,9,11,13,-1,15,17,19,21,23,25,27,29,31,33,-1,35,37,39,41,43,45,47,49,51,53,-1,-1,-1,-1,-1,-1,-1,-1,-1,-1,-1,-1,-1,-1,-1,-1,-1,-1,-1,-1,-1,-1,-1,-1,-1,-1],"loss_changes":[9.122802E0,7.502763E0,6.5851545E0,5.53885E0,6.8808613E0,5.648247E0,6.953853E0,0E0,5.206388E0,3.3448641E0,9.807371E0,7.409152E0,5.120949E0,5.8090653E0,7.2131205E0,5.5652013E0,1.9900064E0,3.3652673E0,0E0,4.6056805E0,3.4237213E0,4.8149366E0,8.55364E0,4.544104E0,4.797476E0,6.9057956E0,6.233491E0,4.696078E0,5.183128E0,0E0,0E0,0E0,0E0,0E0,0E0,0E0,0E0,0E0,0E0,0E0,0E0,0E0,0E0,0E0,0E0,0E0,0E0,0E0,0E0,0E0,0E0,0E0,0E0,0E0,0E0],"parents":[2147483647,0,0,1,1,2,2,3,3,4,4,5,5,6,6,8,8,9,9,10,10,11,11,12,12,13,13,14,14,15,15,16,16,17,17,19,19,20,20,21,21,22,22,23,23,24,24,25,25,26,26,27,27,28,28],"right_children":[2,4,6,8,10,12,14,-1,16,18,20,22,24,26,28,30,32,34,-1,36,38,40,42,44,46,48,50,52,54,-1,-1,-1,-1,-1,-1,-1,-1,-1,-1,-1,-1,-1,-1,-1,-1,-1,-1,-1,-1,-1,-1,-1,-1,-1,-1],"split_conditions":[3.446261E-3,4.3954307E-1,6.125846E-2,8.678683E-2,3.0918068E-1,9.101002E-1,4.296197E-2,2.6027396E-1,1.9028223E-1,7.925288E-1,4.7403032E-1,9.8016804E-1,9.5247275E-1,4.3747842E-2,1.779323E-1,6.539094E-1,9.019025E-1,2.5452182E-1,1.9178082E-1,3.7675998E-1,1.0122441E-1,9.923959E-1,5.288794E-1,9.719873E-1,6.277365E-1,1.7052603E-1,2.4194114E-2,2.5452182E-1,9.560475E-1,-4.7619045E-2,3.033708E-1,-8.600337E-2,7.865169E-2,1.1340206E-1,-1.11111104E-1,1.7391305E-1,-4.72103E-2,-0E0,3.076923E-1,-2.3387186E-2,1.291866E-1,-4.4982698E-2,1.8836564E-1,7.0568696E-3,2.1238938E-1,2.7586207E-1,-7.692307E-2,1.0526315E-1,-1.01182655E-1,1.3279678E-1,1.9161543E-2,3.5875838E-3,-1.4540884E-2,1.7249882E-3,-1.705618E-2],"split_indices":[7,3,45,42,15,43,48,0,14,26,17,24,34,32,23,48,36,36,0,18,20,31,15,20,22,49,43,36,35,0,0,0,0,0,0,0,0,0,0,0,0,0,0,0,0,0,0,0,0,0,0,0,0,0,0],"split_type":[0,0,0,0,0,0,0,0,0,0,0,0,0,0,0,0,0,0,0,0,0,0,0,0,0,0,0,0,0,0,0,0,0,0,0,0,0,0,0,0,0,0,0,0,0,0,0,0,0,0,0,0,0,0,0],"sum_hessian":[1.9200002E4,7.5200005E1,1.91248E4,3.2960003E1,4.224E1,1.1977601E3,1.7927041E4,1.9200001E0,3.1040003E1,1.2800001E1,2.9440002E1,1.0924801E3,1.0528001E2,7.769601E2,1.7150082E4,5.76E0,2.5280003E1,1.0880001E1,1.9200001E0,1.3760001E1,1.5680001E1,1.0684801E3,2.4000002E1,9.8880005E1,6.4000006E0,3.6800003E1,7.4016003E2,2.9955203E3,1.4154561E4,3.2000003E0,2.5600002E0,2.2720001E1,2.5600002E0,2.88E0,8.000001E0,5.4400005E0,8.320001E0,1.6000001E0,1.4080001E1,1.0611201E3,7.3600006E0,1.056E1,1.3440001E1,9.536001E1,3.5200002E0,4.8E0,1.6000001E0,7.3600006E0,2.9440002E1,1.8880001E1,7.2128E2,7.6832007E2,2.2272002E3,1.3541121E4,6.1344006E2],"tree_param":{"num_deleted":"0","num_feature":"50","num_nodes":"55","size_leaf_vector":"1"}},{"base_weights":[3.2289983E-3,1.498094E-1,-2.9865454E-4,3.8817003E-1,7.440995E-2,2.3598457E-3,-1.09544754E-1,4.958497E-1,-1.9274375E-1,-3.8431974E-3,3.1353134E-1,-1.7681769E-3,7.370271E-2,3.8750302E-2,-1.9621782E-1,3.060587E-1,9.046283E-1,2.3076923E-1,-3.9900246E-1,-2.926752E-2,7.655502E-1,4.7971666E-1,-1.3490725E-1,2.992446E-1,-2.9701614E-3,3.5476044E-1,5.382545E-2,-7.573367E-2,4.0609136E-1,8.4070796E-1,-2.12383E-1,-1.4184396E-2,1.17263846E-1,2.0700152E-1,-8.6419754E-2,-1.0298102E-1,1.0526315E-1,-1.3004559E-2,9.411764E-2,3.3333334E-1,-2.3255814E-2,7.967589E-2,3.1958762E-1,1.24183E-1,-7.526881E-2,1.5289982E-1,1.3593882E-2,2.1192705E-2,-1.1192088E-3,3.265306E-2,1.714922E-1,3.1248315E-3,3.9811205E-2,1.0862619E-1,-2.846234E-2,-3.7383176E-2,1.3352685E-1,2.8395063E-1,-7.017544E-2,3.0015796E-2,-4.9550258E-2],"categories":[],"categories_nodes":[],"categories_segments":[],"categories_sizes":[],"default_left":[0,0,0,0,0,0,0,0,0,0,0,0,0,0,0,0,0,0,0,0,0,0,0,0,0,0,0,0,0,0,0,0,0,0,0,0,0,0,0,0,0,0,0,0,0,0,0,0,0,0,0,0,0,0,0,0,0,0,0,0,0],"id":1,"left_children":[1,3,5,7,9,11,13,15,17,19,21,23,25,27,29,31,33,-1,35,37,39,41,43,45,47,49,51,53,55,57,59,-1,-1,-1,-1,-1,-1,-1,-1,-1,-1,-1,-1,-1,-1,-1,-1,-1,-1,-1,-1,-1,-1,-1,-1,-1,-1,-1,-1,-1,-1],"loss_changes":[9.928591E0,8.08092E0,5.4460573E0,6.863764E0,6.438882E0,5.3914204E0,5.7334423E0,6.826582E0,5.3598256E0,5.1122575E0,6.387327E0,6.2624054E0,5.574937E0,6.976503E0,4.894062E0,6.8075876E0,5.417734E0,0E0,1.9912419E0,4.549477E0,6.8369117E0,5.0134144E0,4.5621824E0,7.3553476E0,4.9315066E0,6.209627E0,5.1918106E0,5.3001595E0,6.2356057E0,3.6168754E0,3.598485E0,0E0,0E0,0E0,0E0,0E0,0E0,0E0,0E0,0E0,0E0,0E0,0E0,0E0,0E0,0E0,0E0,0E0,0E0,0E0,0E0,0E0,0E0,0E0,0E0,0E0,0E0,0E0,0E0,0E0,0E0],"parents":[2147483647,0,0,1,1,2,2,3,3,4,4,5,5,6,6,7,7,8,8,9,9,10,10,11,11,12,12,13,13,14,14,15,15,16,16,18,18,19,19,20,20,21,21,22,22,23,23,24,24,25,25,26,26,27,27,28,28,29,29,30,30],"right_children":[2,4,6,8,10,12,14,16,18,20,22,24,26,28,30,32,34,-1,36,38,40,42,44,46,48,50,52,54,56,58,60,-1,-1,-1,-1,-1,-1,-1,-1,-1,-1,-1,-1,-1,-1,-1,-1,-1,-1,-1,-1,-1,-1,-1,-1,-1,-1,-1,-1,-1,-1],"split_conditions":[2.1999523E-2,2.511182E-1,9.7653615E-1,8.387872E-1,7.4503785E-1,9.440485E-1,3.7798038E-1,6.946915E-1,9.505049E-2,9.768638E-1,7.4885434E-1,4.220635E-3,7.072286E-2,7.7267987E-1,1.2030626E-2,4.485368E-1,9.199367E-1,2.3076923E-1,8.6580163E-1,9.417202E-1,4.7626543E-1,9.326776E-1,2.1291082E-1,2.779448E-1,2.336079E-2,7.6539046E-1,8.025567E-1,1.01661265E-1,3.01155E-1,8.289711E-1,6.924381E-2,-1.4184396E-2,1.17263846E-1,2.0700152E-1,-8.6419754E-2,-1.0298102E-1,1.0526315E-1,-1.3004559E-2,9.411764E-2,3.3333334E-1,-2.3255814E-2,7.967589E-2,3.1958762E-1,1.24183E-1,-7.526881E-2,1.5289982E-1,1.3593882E-2,2.1192705E-2,-1.1192088E-3,3.265306E-2,1.714922E-1,3.1248315E-3,3.9811205E-2,1.0862619E-1,-2.846234E-2,-3.7383176E-2,1.3352685E-1,2.8395063E-1,-7.017544E-2,3.0015796E-2,-4.9550258E-2],"split_indices":[49,1,30,4,35,35,42,3,13,12,36,14,29,3,0,11,8,0,37,39,46,44,3,1,40,38,21,27,35,37,24,0,0,0,0,0,0,0,0,0,0,0,0,0,0,0,0,0,0,0,0,0,0,0,0,0,0,0,0,0,0],"split_type":[0,0,0,0,0,0,0,0,0,0,0,0,0,0,0,0,0,0,0,0,0,0,0,0,0,0,0,0,0,0,0,0,0,0,0,0,0,0,0,0,0,0,0,0,0,0,0,0,0,0,0,0,0,0,0,0,0,0,0,0,0],"sum_hessian":[1.9200002E4,4.5024002E2,1.8749762E4,1.07200005E2,3.4304004E2,1.8305281E4,4.4448004E2,9.0560005E1,1.6640001E1,2.592E2,8.3840004E1,1.730496E4,1.00032007E3,1.6416002E2,2.8032E2,6.3040005E1,2.7520002E1,1.6000001E0,1.5040001E1,2.5184001E2,7.3600006E0,6.1120003E1,2.2720001E1,6.7840004E1,1.7237121E4,6.496001E1,9.3536005E2,1.2576001E2,3.84E1,3.5200002E0,2.7680002E2,2.7200003E1,3.5840004E1,2.5280003E1,2.2400002E0,1.3760001E1,1.2800001E0,2.3584001E2,1.6000002E1,3.2000003E0,4.1600003E0,5.8240005E1,2.88E0,5.1200004E0,1.76E1,2.1760002E1,4.608E1,4.0480002E2,1.683232E4,4.8000004E1,1.6960001E1,7.4144006E2,1.9392001E2,1.152E1,1.14240005E2,1.1840001E1,2.6560001E1,2.2400002E0,1.2800001E0,2.4320002E1,2.5248001E2],"tree_param":{"num_deleted":"0","num_feature":"50","num_nodes":"61","size_leaf_vector":"1"}},{"base_weights":[5.728868E-3,1.0609991E-1,2.48378E-3,5.904088E-2,3.296282E-1,-7.657528E-4,1.0341261E-1,-4.3419033E-2,1.4997727E-1,-1.1004784E-1,4.0206182E-1,8.465977E-2,-3.8639074E-3,5.056329E-2,2.8553882E-1,-8.115419E-2,5.524079E-1,4.9773753E-1,7.96957E-2,7.607282E-1,2.3200475E-1,-5.0980996E-2,1.7862889E-1,-8.5083544E-2,-3.6122903E-5,-1.7656703E-2,2.1074502E-1,4.1948578E-1,-0E0,-9.92177E-3,-1.15501516E-1,2.8758168E-1,-2.222222E-2,3.3660587E-2,2.06235E-1,6.774876E-2,-1.9375151E-3,8.556149E-2,2.9613733E-1,1.058201E-1,-2.890933E-2,-1.3956405E-2,1.9008264E-1,7.154213E-2,1.7416544E-2,9.549072E-2,-1.9201748E-2,-2.976177E-3,3.4284822E-3,3.91553E-2,-2.0594966E-2,9.072978E-2,2.1356111E-3,1.6945995E-1,5.571847E-2,-3.0139936E-2,1.7391305E-1],"categories":[],"categories_nodes":[],"categories_segments":[],"categories_sizes":[],"default_left":[0,0,0,0,0,0,0,0,0,0,0,0,0,0,0,0,0,0,0,0,0,0,0,0,0,0,0,0,0,0,0,0,0,0,0,0,0,0,0,0,0,0,0,0,0,0,0,0,0,0,0,0,0,0,0,0,0],"id":2,"left_children":[1,3,5,7,9,11,13,15,17,-1,19,21,23,25,27,29,31,33,35,37,39,41,43,45,47,49,51,53,55,-1,-1,-1,-1,-1,-1,-1,-1,-1,-1,-1,-1,-1,-1,-1,-1,-1,-1,-1,-1,-1,-1,-1,-1,-1,-1,-1,-1],"loss_changes":[6.2537494E0,6.305837E0,6.100573E0,4.646172E0,6.872302E0,4.769919E0,5.5701303E0,5.326683E0,6.413769E0,0E0,5.7399015E0,8.048801E0,5.406931E0,4.931193E0,4.982826E0,3.4442143E0,8.455923E0,7.5938387E0,5.1167374E0,6.7393894E0,7.5987406E0,4.941071E0,6.0812798E0,4.8565464E0,4.235982E0,5.7955546E0,6.5440927E0,5.1092405E0,5.7134833E0,0E0,0E0,0E0,0E0,0E0,0E0,0E0,0E0,0E0,0E0,0E0,0E0,0E0,0E0,0E0,0E0,0E0,0E0,0E0,0E0,0E0,0E0,0E0,0E0,0E0,0E0,0E0,0E0],"parents":[2147483647,0,0,1,1,2,2,3,3,4,4,5,5,6,6,7,7,8,8,10,10,11,11,12,12,13,13,14,14,15,15,16,16,17,17,18,18,19,19,20,20,21,21,22,22,23,23,24,24,25,25,26,26,27,27,28,28],"right_children":[2,4,6,8,10,12,14,16,18,-1,20,22,24,26,28,30,32,34,36,38,40,42,44,46,48,50,52,54,56,-1,-1,-1,-1,-1,-1,-1,-1,-1,-1,-1,-1,-1,-1,-1,-1,-1,-1,-1,-1,-1,-1,-1,-1,-1,-1,-1,-1],"split_conditions":[3.1243255E-2,8.313029E-1,9.6931523E-1,4.8089257E-1,3.954508E-2,3.4458797E-2,7.6683724E-1,9.516007E-1,1.7087534E-1,-1.1004784E-1,2.9771462E-1,4.069448E-1,7.621252E-2,7.1709037E-1,6.439369E-1,9.4848835E-1,4.3649063E-1,1.00528955E-1,2.4952106E-1,2.2987288E-1,5.713465E-1,9.802255E-1,3.220357E-1,1.5757315E-2,5.3354555E-1,2.9584447E-1,4.8688176E-1,2.4891128E-1,8.866933E-1,-9.92177E-3,-1.15501516E-1,2.8758168E-1,-2.222222E-2,3.3660587E-2,2.06235E-1,6.774876E-2,-1.9375151E-3,8.556149E-2,2.9613733E-1,1.058201E-1,-2.890933E-2,-1.3956405E-2,1.9008264E-1,7.154213E-2,1.7416544E-2,9.549072E-2,-1.9201748E-2,-2.976177E-3,3.4284822E-3,3.91553E-2,-2.0594966E-2,9.072978E-2,2.1356111E-3,1.6945995E-1,5.571847E-2,-3.0139936E-2,1.7391305E-1],"split_indices":[34,32,40,42,43,21,25,24,24,0,15,36,21,36,30,5,25,24,8,15,11,47,37,8,48,24,7,39,31,0,0,0,0,0,0,0,0,0,0,0,0,0,0,0,0,0,0,0,0,0,0,0,0,0,0,0,0],"split_type":[0,0,0,0,0,0,0,0,0,0,0,0,0,0,0,0,0,0,0,0,0,0,0,0,0,0,0,0,0,0,0,0,0,0,0,0,0,0,0,0,0,0,0,0,0,0,0,0,0,0,0,0,0,0,0,0,0],"sum_hessian":[1.9200002E4,6.0032007E2,1.8599682E4,4.9696002E2,1.0336001E2,1.802048E4,5.792E2,2.3392001E2,2.6304E2,7.3600006E0,9.600001E1,6.297601E2,1.739072E4,4.4992004E2,1.2928001E2,2.2080002E2,1.3120001E1,4.3200005E1,2.1984001E2,2.9760002E1,6.6240005E1,2.5792E2,3.7184003E2,7.817601E2,1.660896E4,3.1616003E2,1.3376001E2,8.768001E1,4.1600002E1,2.0864001E2,1.2160001E1,5.1200004E0,8.000001E0,2.7520002E1,1.5680001E1,5.5680004E1,1.6416002E2,2.1440002E1,8.320001E0,3.6800003E1,2.9440002E1,2.5408002E2,3.8400002E0,1.2480001E2,2.4704002E2,1.4080001E1,7.6768005E2,8.909761E3,7.6992007E3,8.9920006E1,2.2624002E2,5.9840004E1,7.3920006E1,2.0480001E1,6.7200005E1,3.6160004E1,5.4400005E0],"tree_param":{"num_deleted":"0","num_feature":"50","num_nodes":"57","size_leaf_vector":"1"}},{"base_weights":[-8.020415E-3,5.7624407E-2,-1.4815512E-2,1.7422591E-1,2.188596E-2,2.7503036E-2,-2.3849038E-2,5.4097056E-1,1.2434344E-1,6.1367616E-2,-9.258214E-2,1.1674833E-1,1.3509634E-3,-2.226614E-2,-2.2237909E-1,8.3892614E-1,1.0242085E-1,-1.529386E-2,2.5748375E-1,-9.583133E-3,1.5476942E-1,2.050507E-2,-2.1534477E-1,-2.170879E-2,1.982419E-1,-5.4030113E-2,5.1745813E-2,-4.054864E-2,-5.191543E-3,8.4070796E-1,-2.6411656E-1,-5.7851236E-2,2.0338981E-1,-9.012875E-2,9.726443E-2,1.4007781E-1,-1.15074795E-2,-8.080808E-2,5.9933405E-2,-6.0249813E-2,4.0684096E-3,2.4460431E-2,1.2922172E-1,3.5263386E-2,-2.6260057E-2,-4.901723E-2,1.24183E-1,6.878307E-2,-1.6820401E-2,8.062349E-4,5.9515566E-2,-1.5161553E-2,3.239491E-2,1.530249E-1,9.037417E-3,3.7809964E-2,-9.22365E-3,8.935611E-2,-1.4136242E-3,3.2876712E-1,-7.692307E-2,-6.003752E-2,1.4285713E-1],"categories":[],"categories_nodes":[],"categories_segments":[],"categories_sizes":[],"default_left":[0,0,0,0,0,0,0,0,0,0,0,0,0,0,0,0,0,0,0,0,0,0,0,0,0,0,0,0,0,0,0,0,0,0,0,0,0,0,0,0,0,0,0,0,0,0,0,0,0,0,0,0,0,0,0,0,0,0,0,0,0,0,0],"id":3,"left_children":[1,3,5,7,9,11,13,15,17,19,21,23,25,27,29,31,33,35,37,39,41,43,45,47,49,51,53,55,57,59,61,-1,-1,-1,-1,-1,-1,-1,-1,-1,-1,-1,-1,-1,-1,-1,-1,-1,-1,-1,-1,-1,-1,-1,-1,-1,-1,-1,-1,-1,-1,-1,-1],"loss_changes":[8.565709E0,7.502569E0,6.652688E0,7.6609077E0,6.241898E0,7.1451826E0,4.5014963E0,6.4840813E0,6.941489E0,6.8046875E0,4.922845E0,7.8327026E0,6.613595E0,4.441255E0,5.2501163E0,6.2792625E0,4.77984E0,5.5753527E0,5.453211E0,5.1065135E0,6.9917393E0,4.4065385E0,4.3793373E0,5.913627E0,8.426361E0,5.32318E0,5.7703905E0,8.79487E0,6.2440267E0,5.0803366E0,4.0894794E0,0E0,0E0,0E0,0E0,0E0,0E0,0E0,0E0,0E0,0E0,0E0,0E0,0E0,0E0,0E0,0E0,0E0,0E0,0E0,0E0,0E0,0E0,0E0,0E0,0E0,0E0,0E0,0E0,0E0,0E0,0E0,0E0],"parents":[2147483647,0,0,1,1,2,2,3,3,4,4,5,5,6,6,7,7,8,8,9,9,10,10,11,11,12,12,13,13,14,14,15,15,16,16,17,17,18,18,19,19,20,20,21,21,22,22,23,23,24,24,25,25,26,26,27,27,28,28,29,29,30,30],"right_children":[2,4,6,8,10,12,14,16,18,20,22,24,26,28,30,32,34,36,38,40,42,44,46,48,50,52,54,56,58,60,62,-1,-1,-1,-1,-1,-1,-1,-1,-1,-1,-1,-1,-1,-1,-1,-1,-1,-1,-1,-1,-1,-1,-1,-1,-1,-1,-1,-1,-1,-1,-1,-1],"split_conditions":[9.403106E-2,2.2921067E-1,1.7306577E-1,1.2471143E-1,7.356667E-1,2.2597767E-1,9.913754E-1,5.800997E-1,4.8924193E-1,5.818968E-1,5.336386E-1,3.5139292E-1,5.16473E-1,4.817267E-1,2.7940005E-2,1.740365E-1,4.5778358E-1,2.31281E-2,1.6615367E-1,8.706234E-2,9.421268E-1,4.6642053E-1,9.572846E-1,1.5400366E-1,3.4384513E-1,9.036937E-1,7.879684E-3,2.314739E-2,4.0192003E-3,3.3656743E-1,9.717707E-1,-5.7851236E-2,2.0338981E-1,-9.012875E-2,9.726443E-2,1.4007781E-1,-1.15074795E-2,-8.080808E-2,5.9933405E-2,-6.0249813E-2,4.0684096E-3,2.4460431E-2,1.2922172E-1,3.5263386E-2,-2.6260057E-2,-4.901723E-2,1.24183E-1,6.878307E-2,-1.6820401E-2,8.062349E-4,5.9515566E-2,-1.5161553E-2,3.239491E-2,1.530249E-1,9.037417E-3,3.7809964E-2,-9.22365E-3,8.935611E-2,-1.4136242E-3,3.2876712E-1,-7.692307E-2,-6.003752E-2,1.4285713E-1],"split_indices":[37,35,19,41,45,34,18,31,3,42,33,14,37,36,9,33,14,3,41,5,36,4,42,1,1,24,43,22,24,23,13,0,0,0,0,0,0,0,0,0,0,0,0,0,0,0,0,0,0,0,0,0,0,0,0,0,0,0,0,0,0,0,0],"split_type":[0,0,0,0,0,0,0,0,0,0,0,0,0,0,0,0,0,0,0,0,0,0,0,0,0,0,0,0,0,0,0,0,0,0,0,0,0,0,0,0,0,0,0,0,0,0,0,0,0,0,0,0,0,0,0,0,0,0,0,0,0,0,0],"sum_hessian":[1.9200002E4,1.8003201E3,1.7399682E4,4.2144003E2,1.3788801E3,3.0604802E3,1.4339201E4,4.9280003E1,3.7216003E2,1.0256001E3,3.5328003E2,6.9280005E2,2.3676802E3,1.4226881E4,1.1232001E2,2.8800001E1,2.0480001E1,1.8208002E2,1.9008002E2,5.8336005E2,4.4224002E2,1.8432E2,1.6896E2,2.5696002E2,4.3584003E2,1.1280001E3,1.23968E3,6.8697603E3,7.3571206E3,3.5200002E0,1.0880001E2,3.8400002E0,2.4960001E1,8.320001E0,1.2160001E1,9.280001E0,1.7280002E2,1.0880001E1,1.7920001E2,5.3440002E1,5.2992004E2,4.1600003E2,2.6240002E1,9.0880005E1,9.344001E1,1.6384001E2,5.1200004E0,3.6800003E1,2.2016002E2,1.4784001E2,2.8800003E2,1.02528E3,1.0272001E2,1.0240001E1,1.2294401E3,1.6192001E2,6.7078403E3,2.9440002E1,7.3276807E3,1.9200001E0,1.6000001E0,1.05600006E2,3.2000003E0],"tree_param":{"num_deleted":"0","num_feature":"50","num_nodes":"63","size_leaf_vector":"1"}},{"base_weights":[3.1769178E-3,-2.1605728E-2,1.9574448E-2,2.8884906E-1,-2.5271904E-2,1.5987692E-2,1.4416532E-1,6.3040787E-1,9.31677E-2,-2.7454564E-2,4.637336E-1,2.655808E-2,-2.8232427E-2,2.987647E-1,2.7027026E-2,2.1505375E-1,1.111111E0,3.487064E-1,-2.9914528E-1,-3.4283772E-1,-2.4962367E-2,8.148893E-1,-4.0650405E-2,1.9563946E-1,2.2634849E-2,-1.7033817E-2,-3.2503808E-1,2.3996377E-1,1.26943E0,-1.8722208E-2,5.4376656E-1,9.631728E-2,-1.0218978E-1,2.6443768E-1,-7.692307E-2,-6.134969E-3,1.5294117E-1,4.1420117E-2,-9.523809E-2,7.865169E-2,-7.6650105E-2,-1.8554015E-2,-2.6342757E-3,1.4925373E-2,2.4299064E-1,1.9178082E-1,-5.29595E-2,3.4299232E-2,3.033708E-1,2.20548E-3,1.4850146E-2,9.829867E-2,-4.444874E-3,-8.878856E-2,-1.5037593E-2,3.2258064E-2,1.6284987E-1,3.8095236E-1,7.964601E-2,1.5698588E-2,-5.929919E-2,-6.2015504E-2,1.7948717E-1],"categories":[],"categories_nodes":[],"categories_segments":[],"categories_sizes":[],"default_left":[0,0,0,0,0,0,0,0,0,0,0,0,0,0,0,0,0,0,0,0,0,0,0,0,0,0,0,0,0,0,0,0,0,0,0,0,0,0,0,0,0,0,0,0,0,0,0,0,0,0,0,0,0,0,0,0,0,0,0,0,0,0,0],"id":4,"left_children":[1,3,5,7,9,11,13,15,17,19,21,23,25,27,29,31,33,35,37,39,41,43,45,47,49,51,53,55,57,59,61,-1,-1,-1,-1,-1,-1,-1,-1,-1,-1,-1,-1,-1,-1,-1,-1,-1,-1,-1,-1,-1,-1,-1,-1,-1,-1,-1,-1,-1,-1,-1,-1],"loss_changes":[7.803215E0,8.709973E0,5.161753E0,5.9111204E0,8.079424E0,5.2516203E0,5.8456435E0,6.2221146E0,5.914871E0,5.906194E0,5.991352E0,6.0100727E0,7.199555E0,7.6426497E0,4.383662E0,3.8452294E0,5.1684723E0,5.6356206E0,2.1959238E0,1.9034514E0,5.968987E0,5.7968407E0,3.5608528E0,6.2943707E0,5.308924E0,5.527448E0,2.3064508E0,5.8560596E0,3.514494E0,4.6387644E0,4.8321095E0,0E0,0E0,0E0,0E0,0E0,0E0,0E0,0E0,0E0,0E0,0E0,0E0,0E0,0E0,0E0,0E0,0E0,0E0,0E0,0E0,0E0,0E0,0E0,0E0,0E0,0E0,0E0,0E0,0E0,0E0,0E0,0E0],"parents":[2147483647,0,0,1,1,2,2,3,3,4,4,5,5,6,6,7,7,8,8,9,9,10,10,11,11,12,12,13,13,14,14,15,15,16,16,17,17,18,18,19,19,20,20,21,21,22,22,23,23,24,24,25,25,26,26,27,27,28,28,29,29,30,30],"right_children":[2,4,6,8,10,12,14,16,18,20,22,24,26,28,30,32,34,36,38,40,42,44,46,48,50,52,54,56,58,60,62,-1,-1,-1,-1,-1,-1,-1,-1,-1,-1,-1,-1,-1,-1,-1,-1,-1,-1,-1,-1,-1,-1,-1,-1,-1,-1,-1,-1,-1,-1,-1,-1],"split_conditions":[3.970336E-1,1.26314275E-2,9.717379E-1,1.6649728E-1,9.9619293E-1,8.028037E-1,3.9114767E-1,6.175761E-1,5.42007E-1,7.697573E-3,5.352937E-1,2.3700649E-2,9.7664404E-1,9.486621E-1,9.1808367E-1,7.4462974E-1,7.6451206E-1,6.011246E-1,1.9812517E-1,6.706163E-2,1.4492428E-1,3.5827857E-1,7.4719965E-2,9.9612164E-1,8.1587577E-1,1.1599335E-2,6.5953237E-1,8.9985174E-1,4.0943122E-1,7.256105E-1,3.3624038E-1,9.631728E-2,-1.0218978E-1,2.6443768E-1,-7.692307E-2,-6.134969E-3,1.5294117E-1,4.1420117E-2,-9.523809E-2,7.865169E-2,-7.6650105E-2,-1.8554015E-2,-2.6342757E-3,1.4925373E-2,2.4299064E-1,1.9178082E-1,-5.29595E-2,3.4299232E-2,3.033708E-1,2.20548E-3,1.4850146E-2,9.829867E-2,-4.444874E-3,-8.878856E-2,-1.5037593E-2,3.2258064E-2,1.6284987E-1,3.8095236E-1,7.964601E-2,1.5698588E-2,-5.929919E-2,-6.2015504E-2,1.7948717E-1],"split_indices":[26,30,7,26,14,33,41,4,34,15,37,32,26,37,15,6,23,7,29,29,42,24,17,21,39,38,46,24,34,14,0,0,0,0,0,0,0,0,0,0,0,0,0,0,0,0,0,0,0,0,0,0,0,0,0,0,0,0,0,0,0,0,0],"split_type":[0,0,0,0,0,0,0,0,0,0,0,0,0,0,0,0,0,0,0,0,0,0,0,0,0,0,0,0,0,0,0,0,0,0,0,0,0,0,0,0,0,0,0,0,0,0,0,0,0,0,0,0,0,0,0,0,0,0,0,0,0,0,0],"sum_hessian":[1.9200002E4,7.6451206E3,1.1554881E4,8.832001E1,7.5568003E3,1.1232641E4,3.2224002E2,3.1360003E1,5.6960003E1,7.5241606E3,3.2640003E1,9.065921E3,2.1667202E3,1.3824E2,1.8400002E2,1.76E1,1.3760001E1,3.456E1,2.2400002E1,5.7920006E1,7.4662407E3,1.8880001E1,1.3760001E1,2.0448001E2,8.86144E3,2.0889602E3,7.776E1,1.3152E2,6.7200003E0,1.6992001E2,1.4080001E1,1.3120001E1,4.4800005E0,1.2160001E1,1.6000001E0,1.8560001E1,1.6000002E1,5.76E0,1.6640001E1,2.5600002E0,5.5360004E1,1.1049601E3,6.3612803E3,7.0400004E0,1.1840001E1,1.9200001E0,1.1840001E1,2.0192001E2,2.5600002E0,7.2355205E3,1.6259202E3,2.0160002E1,2.0688E3,5.2160004E1,2.5600002E1,1.1680001E2,1.4720001E1,3.2000003E0,3.5200002E0,1.2640001E2,4.3520004E1,4.1600003E0,9.920001E0],"tree_param":{"num_deleted":"0","num_feature":"50","num_nodes":"63","size_leaf_vector":"1"}},{"base_weights":[-3.5903251E-3,3.0031002E-1,-4.8406925E-3,-1.1252044E-2,5.211024E-1,-7.004155E-2,-5.2216806E-4,5.6575924E-1,-2.3451294E-1,1.1707416E0,3.2638034E-1,-7.718259E-2,5.0360554E-1,8.125111E-2,-4.276091E-3,9.770595E-1,-8.862597E-2,-4.2868367E-1,3.4764916E-1,1.5427991E0,-8.211804E-2,8.098586E-1,4.526006E-2,-1.4708927E-2,-1.3932648E-1,-3.4513703E-1,9.4807255E-1,1.582151E-1,-1.5872241E-3,-4.468747E-2,4.223419E-3,-6.935758E-2,2.6343545E-1,5.587525E-2,-1.0458769E-1,2.5648603E-1,-2.6968105E-2,5.9100956E-2,3.6656302E-1,2.1041341E-1,-8.327313E-2,1.2542193E-1,-5.747282E-2,1.3180387E-1,-5.7879733E-3,7.342097E-2,-3.097172E-2,-9.8515235E-2,3.6007535E-2,2.6367536E-1,-8.148215E-2,5.7191946E-2,6.257843E-3,2.5976473E-2,-2.209276E-2,-2.5916744E-3,-1.8597728E-2,-6.138624E-2,1.0750309E-3],"categories":[],"categories_nodes":[],"categories_segments":[],"categories_sizes":[],"default_left":[0,0,0,0,0,0,0,0,0,0,0,0,0,0,0,0,0,0,0,0,0,0,0,0,0,0,0,0,0,0,0,0,0,0,0,0,0,0,0,0,0,0,0,0,0,0,0,0,0,0,0,0,0,0,0,0,0,0,0],"id":5,"left_children":[1,3,5,7,9,11,13,15,17,19,21,23,25,27,29,31,-1,33,35,37,-1,39,41,43,45,47,49,51,53,55,57,-1,-1,-1,-1,-1,-1,-1,-1,-1,-1,-1,-1,-1,-1,-1,-1,-1,-1,-1,-1,-1,-1,-1,-1,-1,-1,-1,-1],"loss_changes":[7.292483E0,5.4153953E0,5.3807764E0,4.4603443E0,5.4424295E0,4.9017353E0,5.502437E0,4.44353E0,2.9669309E0,6.653363E0,4.966696E0,4.5533814E0,5.883462E0,5.016264E0,5.8867235E0,3.6887631E0,0E0,1.4235585E0,3.2340784E0,2.5307007E0,0E0,4.4403114E0,4.8902535E0,5.6399045E0,4.6829586E0,5.374189E-1,5.523141E0,6.603942E0,5.4523225E0,4.563139E0,5.0764313E0,0E0,0E0,0E0,0E0,0E0,0E0,0E0,0E0,0E0,0E0,0E0,0E0,0E0,0E0,0E0,0E0,0E0,0E0,0E0,0E0,0E0,0E0,0E0,0E0,0E0,0E0,0E0,0E0],"parents":[2147483647,0,0,1,1,2,2,3,3,4,4,5,5,6,6,7,7,8,8,9,9,10,10,11,11,12,12,13,13,14,14,15,15,17,17,18,18,19,19,21,21,22,22,23,23,24,24,25,25,26,26,27,27,28,28,29,29,30,30],"right_children":[2,4,6,8,10,12,14,16,18,20,22,24,26,28,30,32,-1,34,36,38,-1,40,42,44,46,48,50,52,54,56,58,-1,-1,-1,-1,-1,-1,-1,-1,-1,-1,-1,-1,-1,-1,-1,-1,-1,-1,-1,-1,-1,-1,-1,-1,-1,-1,-1,-1],"split_conditions":[3.446261E-3,4.3954307E-1,6.125846E-2,2.1517886E-1,2.0375279E-1,9.883781E-1,4.296197E-2,8.972034E-1,7.048115E-1,7.6868147E-1,3.725744E-1,4.9212798E-1,2.7265605E-1,5.34127E-1,1.779323E-1,3.0551097E-1,-8.862597E-2,6.839879E-2,4.490787E-1,2.9410324E-1,-8.211804E-2,7.530894E-1,4.1206503E-1,1.621706E-2,2.8281614E-2,5.7601196E-1,8.199219E-1,4.952929E-1,4.6719423E-1,6.0497165E-1,4.608773E-3,-6.935758E-2,2.6343545E-1,5.587525E-2,-1.0458769E-1,2.5648603E-1,-2.6968105E-2,5.9100956E-2,3.6656302E-1,2.1041341E-1,-8.327313E-2,1.2542193E-1,-5.747282E-2,1.3180387E-1,-5.7879733E-3,7.342097E-2,-3.097172E-2,-9.8515235E-2,3.6007535E-2,2.6367536E-1,-8.148215E-2,5.7191946E-2,6.257843E-3,2.5976473E-2,-2.209276E-2,-2.5916744E-3,-1.8597728E-2,-6.138624E-2,1.0750309E-3],"split_indices":[7,3,45,42,36,13,48,1,45,46,22,10,49,43,23,33,0,16,34,0,0,43,45,25,44,8,17,13,23,10,42,0,0,0,0,0,0,0,0,0,0,0,0,0,0,0,0,0,0,0,0,0,0,0,0,0,0,0,0],"split_type":[0,0,0,0,0,0,0,0,0,0,0,0,0,0,0,0,0,0,0,0,0,0,0,0,0,0,0,0,0,0,0,0,0,0,0,0,0,0,0,0,0,0,0,0,0,0,0,0,0,0,0,0,0,0,0,0,0,0,0],"sum_hessian":[1.918657E4,7.7637726E1,1.9108934E4,3.2593624E1,4.50441E1,1.1860962E3,1.7922836E4,8.6650305E0,2.3928593E1,9.231903E0,3.58122E1,1.1723674E3,1.3728758E1,7.8575525E2,1.7137082E4,6.177968E0,2.4870627E0,1.8141443E1,5.7871494E0,7.49325E0,1.738653E0,1.2475562E1,2.3336636E1,5.8524927E2,5.871182E2,4.795286E0,8.933472E0,4.068481E2,3.7890717E2,2.9772634E3,1.4159817E4,1.2587805E0,4.9191875E0,1.9004959E0,1.6240948E1,1.4057295E0,4.3814197E0,1.7944868E0,5.6987634E0,1.05364E1,1.9391621E0,8.166274E0,1.5170361E1,1.116906E1,5.740802E2,1.6797367E1,5.703208E2,3.7926092E0,1.002677E0,7.0381074E0,1.8953643E0,2.0214561E2,2.0470248E2,1.7155717E2,2.0734999E2,1.797652E3,1.1796116E3,5.1240017E1,1.4108578E4],"tree_param":{"num_deleted":"0","num_feature":"50","num_nodes":"59","size_leaf_vector":"1"}},{"base_weights":[2.8357997E-3,1.33092E-1,-3.4965225E-4,5.059095E-1,9.448344E-2,5.082756E-2,-5.1636677E-3,1.19235486E-1,8.3584034E-1,6.898005E-1,6.880651E-2,3.4498326E-2,3.2210952E-1,-1.0700825E-2,4.6207495E-2,-2.0446461E-1,9.088417E-1,-2.152579E-1,1.0008456E0,-2.6858422E-1,9.596234E-1,4.158077E-2,5.3473264E-1,1.4396209E-2,2.748722E-1,5.7946637E-2,6.3504004E-1,-9.859578E-2,-6.4731915E-3,2.3218305E-1,2.1992255E-2,6.561797E-2,-9.539617E-2,3.1633446E-1,-8.186432E-2,-7.9240955E-2,1.8422136E-2,2.7740327E-1,2.8841827E-2,1.8378954E-2,-8.730134E-2,-3.6221024E-2,2.4985321E-1,-2.492314E-2,2.1534761E-2,2.3177145E-1,3.846159E-2,9.085168E-2,8.8513625E-4,8.480175E-2,-2.0972049E-2,1.3653618E-1,-1.738597E-2,7.57712E-2,2.441808E-1,-2.2557693E-2,2.1263161E-1,2.3506876E-2,-1.8987152E-3,3.8866933E-2,2.4780552E-1,-1.7966991E-2,1.2777068E-2],"categories":[],"categories_nodes":[],"categories_segments":[],"categories_sizes":[],"default_left":[0,0,0,0,0,0,0,0,0,0,0,0,0,0,0,0,0,0,0,0,0,0,0,0,0,0,0,0,0,0,0,0,0,0,0,0,0,0,0,0,0,0,0,0,0,0,0,0,0,0,0,0,0,0,0,0,0,0,0,0,0,0,0],"id":6,"left_children":[1,3,5,7,9,11,13,15,17,19,21,23,25,27,29,31,33,35,37,39,41,43,45,47,49,51,53,55,57,59,61,-1,-1,-1,-1,-1,-1,-1,-1,-1,-1,-1,-1,-1,-1,-1,-1,-1,-1,-1,-1,-1,-1,-1,-1,-1,-1,-1,-1,-1,-1,-1,-1],"loss_changes":[7.970188E0,6.5524206E0,4.6199303E0,5.360612E0,6.3228097E0,7.130985E0,4.8759203E0,5.5206156E0,4.192045E0,4.6850443E0,5.0597124E0,7.3496923E0,7.5202E0,5.7489133E0,7.506122E0,2.423373E0,6.1925836E0,2.5529248E-1,6.4142475E0,3.150836E-1,4.712516E0,4.1829715E0,4.4859376E0,6.1618724E0,6.6926785E0,4.6456175E0,5.803028E0,1.1826737E1,5.5309534E0,7.077592E0,6.92442E0,0E0,0E0,0E0,0E0,0E0,0E0,0E0,0E0,0E0,0E0,0E0,0E0,0E0,0E0,0E0,0E0,0E0,0E0,0E0,0E0,0E0,0E0,0E0,0E0,0E0,0E0,0E0,0E0,0E0,0E0,0E0,0E0],"parents":[2147483647,0,0,1,1,2,2,3,3,4,4,5,5,6,6,7,7,8,8,9,9,10,10,11,11,12,12,13,13,14,14,15,15,16,16,17,17,18,18,19,19,20,20,21,21,22,22,23,23,24,24,25,25,26,26,27,27,28,28,29,29,30,30],"right_children":[2,4,6,8,10,12,14,16,18,20,22,24,26,28,30,32,34,36,38,40,42,44,46,48,50,52,54,56,58,60,62,-1,-1,-1,-1,-1,-1,-1,-1,-1,-1,-1,-1,-1,-1,-1,-1,-1,-1,-1,-1,-1,-1,-1,-1,-1,-1,-1,-1,-1,-1,-1,-1],"split_conditions":[2.1999523E-2,1.0075122E-1,8.367327E-2,4.839688E-1,3.5912454E-2,9.39402E-1,9.0176535E-1,6.4653903E-1,1.0720541E-1,1.8224454E-1,9.501978E-1,9.263217E-1,5.563003E-1,4.6345707E-2,1.13899E-1,3.00038E-1,7.1808505E-1,6.9482225E-1,6.213176E-1,4.9185708E-1,1.6711733E-1,2.805829E-1,3.0037472E-1,2.0092355E-2,6.7150354E-1,1.53257E-2,7.042347E-1,9.922499E-1,2.336079E-2,9.7567475E-1,2.7837968E-1,6.561797E-2,-9.539617E-2,3.1633446E-1,-8.186432E-2,-7.9240955E-2,1.8422136E-2,2.7740327E-1,2.8841827E-2,1.8378954E-2,-8.730134E-2,-3.6221024E-2,2.4985321E-1,-2.492314E-2,2.1534761E-2,2.3177145E-1,3.846159E-2,9.085168E-2,8.8513625E-4,8.480175E-2,-2.0972049E-2,1.3653618E-1,-1.738597E-2,7.57712E-2,2.441808E-1,-2.2557693E-2,2.1263161E-1,2.3506876E-2,-1.8987152E-3,3.8866933E-2,2.4780552E-1,-1.7966991E-2,1.2777068E-2],"split_indices":[49,2,4,18,47,18,6,23,25,35,27,36,9,21,17,39,47,14,4,38,40,32,16,42,18,4,16,41,40,49,33,0,0,0,0,0,0,0,0,0,0,0,0,0,0,0,0,0,0,0,0,0,0,0,0,0,0,0,0,0,0,0,0],"split_type":[0,0,0,0,0,0,0,0,0,0,0,0,0,0,0,0,0,0,0,0,0,0,0,0,0,0,0,0,0,0,0,0,0,0,0,0,0,0,0,0,0,0,0,0,0,0,0,0,0,0,0,0,0,0,0,0,0,0,0,0,0,0,0],"sum_hessian":[1.9207639E4,4.5754156E2,1.8750096E4,4.1800262E1,4.157413E2,1.6112747E3,1.7138822E4,1.987199E1,2.1928274E1,1.6120668E1,3.9962064E2,1.520857E3,9.041755E1,1.5471937E4,1.6668857E3,1.4619685E1,5.252304E0,2.9339828E0,1.8994291E1,3.5425313E0,1.2578137E1,3.7858765E2,2.1032993E1,1.4044637E3,1.1639336E2,4.9671833E1,4.074572E1,7.090041E2,1.4762932E4,1.910458E2,1.47584E3,4.8797297E0,9.739956E0,3.345006E0,1.9072984E0,1.6648624E0,1.2691206E0,1.266554E1,6.3287516E0,1.2696755E0,2.2728558E0,2.6228876E0,9.95525E0,1.07467125E2,2.711205E2,6.6067867E0,1.4426208E1,3.0142223E1,1.3743214E3,8.348771E1,3.2905647E1,8.651746E0,4.102009E1,2.9494955E1,1.1250763E1,7.0133905E2,7.6650596E0,3.501214E2,1.4412811E4,1.8527415E2,5.771648E0,4.018958E2,1.0739441E3],"tree_param":{"num_deleted":"0","num_feature":"50","num_nodes":"63","size_leaf_vector":"1"}},{"base_weights":[5.007745E-3,8.171879E-2,1.5316202E-3,4.4660453E-2,2.5578004E-1,-1.5316281E-3,9.55763E-2,-1.1211155E-1,9.306129E-2,1.0121343E0,1.9820245E-1,-1.678442E-2,1.5213082E-2,1.5865554E-1,-5.3283226E-2,1.6678876E-1,-2.291122E-1,-7.136731E-2,1.5321316E-1,1.5575776E0,-2.2084756E-1,4.4506365E-1,5.363673E-3,-1.2631947E-1,-1.061612E-2,1.1584374E-2,2.4543984E-1,1.267574E-1,6.2104744E-1,-7.9506435E-2,2.3870654E-1,1.01435006E-1,-6.1850864E-2,-6.2067907E-2,6.0632803E-2,-7.236031E-2,1.8700773E-2,2.7771086E-2,2.2332232E-1,3.7416193E-1,6.874585E-2,-8.365252E-2,3.6460754E-2,1.24037854E-1,-7.7961184E-2,-1.4350012E-2,1.7782232E-1,-2.7138857E-2,1.3830195E-1,1.7590402E-2,-3.5608595E-3,-5.093894E-3,5.162377E-3,-4.17012E-2,7.279881E-2,8.527788E-2,1.6310047E-2,1.9338247E-1,-4.0770657E-2,1.863489E-1,-2.2538481E-2],"categories":[],"categories_nodes":[],"categories_segments":[],"categories_sizes":[],"default_left":[0,0,0,0,0,0,0,0,0,0,0,0,0,0,0,0,0,0,0,0,0,0,0,0,0,0,0,0,0,0,0,0,0,0,0,0,0,0,0,0,0,0,0,0,0,0,0,0,0,0,0,0,0,0,0,0,0,0,0,0,0],"id":7,"left_children":[1,3,5,7,9,11,13,15,17,19,21,23,25,27,29,31,33,35,37,39,41,43,45,47,49,51,53,55,57,59,-1,-1,-1,-1,-1,-1,-1,-1,-1,-1,-1,-1,-1,-1,-1,-1,-1,-1,-1,-1,-1,-1,-1,-1,-1,-1,-1,-1,-1,-1,-1],"loss_changes":[5.124007E0,5.361809E0,5.2963E0,5.2308855E0,6.157899E0,4.5477757E0,5.454063E0,5.349123E0,5.2158413E0,7.1264305E0,6.5157404E0,6.294445E0,7.0882883E0,5.9329214E0,5.762858E0,8.044464E0,5.0694647E0,6.8157578E0,5.178816E0,2.0626354E0,3.9212963E-1,9.019713E0,5.371578E0,3.901824E0,6.2525377E0,4.406539E0,7.1613827E0,5.146904E0,7.628227E0,5.83434E0,0E0,0E0,0E0,0E0,0E0,0E0,0E0,0E0,0E0,0E0,0E0,0E0,0E0,0E0,0E0,0E0,0E0,0E0,0E0,0E0,0E0,0E0,0E0,0E0,0E0,0E0,0E0,0E0,0E0,0E0,0E0],"parents":[2147483647,0,0,1,1,2,2,3,3,4,4,5,5,6,6,7,7,8,8,9,9,10,10,11,11,12,12,13,13,14,14,15,15,16,16,17,17,18,18,19,19,20,20,21,21,22,22,23,23,24,24,25,25,26,26,27,27,28,28,29,29],"right_children":[2,4,6,8,10,12,14,16,18,20,22,24,26,28,30,32,34,36,38,40,42,44,46,48,50,52,54,56,58,60,-1,-1,-1,-1,-1,-1,-1,-1,-1,-1,-1,-1,-1,-1,-1,-1,-1,-1,-1,-1,-1,-1,-1,-1,-1,-1,-1,-1,-1,-1,-1],"split_conditions":[4.3071344E-2,8.313029E-1,9.6931523E-1,2.4344778E-1,7.614247E-2,5.202373E-1,6.875629E-1,3.095219E-1,2.6995867E-1,6.058834E-1,9.0133953E-1,5.5880737E-2,9.8377293E-1,9.382055E-1,9.806171E-1,5.898368E-1,8.6725986E-1,3.8524985E-1,9.84693E-1,7.420212E-1,5.3364587E-1,8.2044274E-1,9.4409513E-1,9.9219936E-1,6.486201E-2,2.7655068E-1,2.2796686E-1,1.2942064E-1,6.4834327E-1,2.2682523E-2,2.3870654E-1,1.01435006E-1,-6.1850864E-2,-6.2067907E-2,6.0632803E-2,-7.236031E-2,1.8700773E-2,2.7771086E-2,2.2332232E-1,3.7416193E-1,6.874585E-2,-8.365252E-2,3.6460754E-2,1.24037854E-1,-7.7961184E-2,-1.4350012E-2,1.7782232E-1,-2.7138857E-2,1.3830195E-1,1.7590402E-2,-3.5608595E-3,-5.093894E-3,5.162377E-3,-4.17012E-2,7.279881E-2,8.527788E-2,1.6310047E-2,1.9338247E-1,-4.0770657E-2,1.863489E-1,-2.2538481E-2],"split_indices":[34,32,40,43,4,4,2,13,0,45,32,25,44,36,12,6,16,28,22,47,24,26,44,16,7,45,1,22,21,7,0,0,0,0,0,0,0,0,0,0,0,0,0,0,0,0,0,0,0,0,0,0,0,0,0,0,0,0,0,0,0],"split_type":[0,0,0,0,0,0,0,0,0,0,0,0,0,0,0,0,0,0,0,0,0,0,0,0,0,0,0,0,0,0,0,0,0,0,0,0,0,0,0,0,0,0,0,0,0,0,0,0,0,0,0,0,0,0,0,0,0,0,0,0,0],"sum_hessian":[1.921518E4,8.3200507E2,1.8383176E4,6.8699725E2,1.4500786E2,1.7804234E4,5.7894055E2,1.6175403E2,5.252432E2,9.085094E0,1.3592276E2,9.317187E3,8.487048E3,4.065845E2,1.7235603E2,4.767742E1,1.140766E2,1.4063176E2,3.8461145E2,6.116176E0,2.9689186E0,5.903788E1,7.688488E1,4.9567322E2,8.821514E3,8.35639E3,1.3065848E2,3.815382E2,2.50463E1,1.6972263E2,2.6333976E0,2.7761587E1,1.9915833E1,9.933471E1,1.4741891E1,5.0491806E1,9.013995E1,3.80091E2,4.5204496E0,4.431429E0,1.6847471E0,1.9678296E0,1.0010891E0,4.901371E1,1.002417E1,7.155957E1,5.325306E0,4.908803E2,4.7929015E0,5.9882794E2,8.222686E3,2.3181794E3,6.03821E3,2.6899837E1,1.03758644E2,4.8912888E1,3.3262534E2,1.7525883E1,7.520418E0,4.5324445E0,1.6519019E2],"tree_param":{"num_deleted":"0","num_feature":"50","num_nodes":"61","size_leaf_vector":"1"}},{"base_weights":[-7.0523582E-3,5.1692598E-2,-1.3184468E-2,1.5357807E-1,1.9902244E-2,2.4787195E-2,-2.1340312E-2,4.5697188E-1,1.1036373E-1,1.4556679E-1,-1.3240323E-2,4.09737E-2,-1.0882526E-1,-2.6327172E-2,3.6827322E-2,1.7028583E-2,6.849117E-1,-1.3367045E-2,2.245334E-1,2.2433177E-1,-9.2519306E-2,-1.3686179E-1,2.8288579E-2,9.45601E-2,-1.0355332E-2,4.9375123E-1,-1.4556952E-1,-1.5118489E-1,-2.3858467E-2,6.078336E-1,2.780985E-2,6.9072954E-2,-8.9004375E-2,2.591799E-1,6.4919025E-2,3.8145617E-2,-3.1220263E-2,6.1430365E-2,-1.4111886E-2,5.327665E-3,6.990294E-2,2.1639685E-1,-3.13381E-2,-3.848738E-2,2.5115032E-2,-1.3204169E-2,1.858788E-2,1.2124146E-2,4.9198605E-2,1.1575647E-2,-1.2439477E-2,-1.036719E-1,1.7320126E-1,-3.7302952E-2,7.080728E-2,-4.6958018E-2,1.5091679E-2,-8.44622E-3,-1.8443189E-3,2.2289192E-2,2.7348337E-1,2.920729E-2,-1.898351E-3],"categories":[],"categories_nodes":[],"categories_segments":[],"categories_sizes":[],"default_left":[0,0,0,0,0,0,0,0,0,0,0,0,0,0,0,0,0,0,0,0,0,0,0,0,0,0,0,0,0,0,0,0,0,0,0,0,0,0,0,0,0,0,0,0,0,0,0,0,0,0,0,0,0,0,0,0,0,0,0,0,0,0,0],"id":8,"left_children":[1,3,5,7,9,11,13,15,17,19,21,23,25,27,29,31,33,35,37,39,41,43,45,47,49,51,53,55,57,59,61,-1,-1,-1,-1,-1,-1,-1,-1,-1,-1,-1,-1,-1,-1,-1,-1,-1,-1,-1,-1,-1,-1,-1,-1,-1,-1,-1,-1,-1,-1,-1,-1],"loss_changes":[6.9088283E0,5.8685384E0,5.3783817E0,5.5999193E0,5.7612004E0,6.645785E0,4.147691E0,5.3446455E0,5.350523E0,5.4342484E0,5.626244E0,7.5367155E0,7.4247713E0,4.055003E0,5.7974997E0,3.07479E0,7.319462E0,5.349519E0,4.8230524E0,5.36609E0,5.6314726E0,4.043197E0,5.009448E0,6.874591E0,4.9567685E0,7.725803E0,6.4848003E0,4.8516507E0,3.472166E0,6.448872E0,4.908506E0,0E0,0E0,0E0,0E0,0E0,0E0,0E0,0E0,0E0,0E0,0E0,0E0,0E0,0E0,0E0,0E0,0E0,0E0,0E0,0E0,0E0,0E0,0E0,0E0,0E0,0E0,0E0,0E0,0E0,0E0,0E0,0E0],"parents":[2147483647,0,0,1,1,2,2,3,3,4,4,5,5,6,6,7,7,8,8,9,9,10,10,11,11,12,12,13,13,14,14,15,15,16,16,17,17,18,18,19,19,20,20,21,21,22,22,23,23,24,24,25,25,26,26,27,27,28,28,29,29,30,30],"right_children":[2,4,6,8,10,12,14,16,18,20,22,24,26,28,30,32,34,36,38,40,42,44,46,48,50,52,54,56,58,60,62,-1,-1,-1,-1,-1,-1,-1,-1,-1,-1,-1,-1,-1,-1,-1,-1,-1,-1,-1,-1,-1,-1,-1,-1,-1,-1,-1,-1,-1,-1,-1,-1],"split_conditions":[9.403106E-2,2.2921067E-1,1.7306577E-1,1.2471143E-1,2.1655548E-1,8.9300627E-1,9.2217773E-1,2.6122907E-1,4.8924193E-1,7.1313486E-2,2.588082E-1,4.9497867E-1,5.486202E-2,1.9763388E-2,1.5095934E-2,6.19623E-1,5.0206286E-1,4.132063E-1,7.912787E-1,2.7154403E-2,3.0778714E-2,8.373837E-1,4.1373363E-1,8.0522513E-1,4.2222184E-1,2.1940416E-1,9.340445E-1,7.391623E-1,4.4303626E-1,6.5898025E-1,2.4589539E-1,6.9072954E-2,-8.9004375E-2,2.591799E-1,6.4919025E-2,3.8145617E-2,-3.1220263E-2,6.1430365E-2,-1.4111886E-2,5.327665E-3,6.990294E-2,2.1639685E-1,-3.13381E-2,-3.848738E-2,2.5115032E-2,-1.3204169E-2,1.858788E-2,1.2124146E-2,4.9198605E-2,1.1575647E-2,-1.2439477E-2,-1.036719E-1,1.7320126E-1,-3.7302952E-2,7.080728E-2,-4.6958018E-2,1.5091679E-2,-8.44622E-3,-1.8443189E-3,2.2289192E-2,2.7348337E-1,2.920729E-2,-1.898351E-3],"split_indices":[37,35,19,41,23,21,46,49,3,37,1,32,42,14,22,1,49,20,29,37,8,41,42,5,4,11,22,19,36,30,16,0,0,0,0,0,0,0,0,0,0,0,0,0,0,0,0,0,0,0,0,0,0,0,0,0,0,0,0,0,0,0,0],"split_type":[0,0,0,0,0,0,0,0,0,0,0,0,0,0,0,0,0,0,0,0,0,0,0,0,0,0,0,0,0,0,0,0,0,0,0,0,0,0,0,0,0,0,0,0,0,0,0,0,0,0,0,0,0,0,0,0,0,0,0,0,0,0,0],"sum_hessian":[1.9176016E4,1.811794E3,1.736422E4,4.2996396E2,1.38183E3,3.0698225E3,1.4294399E4,5.241322E1,3.7755072E2,2.8767584E2,1.0941542E3,2.7387317E3,3.3109082E2,1.3166177E4,1.1282225E3,1.8254734E1,3.4158485E1,1.8161229E2,1.9593845E2,2.1620685E2,7.146899E1,2.7456003E2,8.195941E2,1.3394904E3,1.3992412E3,1.8314247E1,3.1277658E2,2.5410829E2,1.2912068E4,1.6507769E1,1.1117148E3,1.0819128E1,7.435607E0,1.1708264E1,2.2450222E1,7.4602394E1,1.0700989E2,1.5304805E2,4.28904E1,8.4296135E1,1.3191072E2,2.88085E0,6.8588135E1,2.2679861E2,4.77614E1,3.33329E2,4.862651E2,1.0953903E3,2.4410019E2,6.0406525E2,7.95176E2,4.81915E0,1.3495096E1,2.8966385E2,2.3112751E1,1.8560538E2,6.850291E1,5.7245537E3,7.187514E3,1.0677041E1,5.830727E0,2.6593256E2,8.457822E2],"tree_param":{"num_deleted":"0","num_feature":"50","num_nodes":"63","size_leaf_vector":"1"}},{"base_weights":[2.781614E-3,-1.959751E-2,1.7516231E-2,-2.1649204E-2,4.1835588E-1,4.3531183E-2,2.5464448E-3,2.4297681E-1,-2.4889084E-2,8.5451835E-1,6.795051E-2,1.3513047E-1,2.0232396E-2,-1.3071154E-1,6.92005E-3,1.5303293E-2,4.889574E-1,-1.8400943E-1,-2.029416E-2,-8.6139135E-2,1.0767759E0,-8.6428314E-2,2.583657E-1,1.7279448E-1,-7.6315194E-2,5.120082E-2,-4.172669E-2,1.2632995E0,-1.5777723E-1,2.0981088E-1,4.0619234E-3,-2.594553E-2,1.875631E-1,-4.460272E-2,1.4217578E-1,-4.078777E-2,2.606671E-1,-2.658477E-3,-2.6499009E-2,-7.1946084E-2,2.515909E-1,1.0852207E-1,-7.40967E-2,4.702106E-2,9.839055E-3,2.9957382E-2,-4.5057446E-2,4.5997165E-2,7.782969E-3,-2.5944982E-2,3.7916035E-3,3.402967E-1,1.6860897E-2,8.781914E-2,-4.4677075E-2,1.8732668E-1,1.9342516E-2,2.616764E-3,-1.1915336E-2],"categories":[],"categories_nodes":[],"categories_segments":[],"categories_sizes":[],"default_left":[0,0,0,0,0,0,0,0,0,0,0,0,0,0,0,0,0,0,0,0,0,0,0,0,0,0,0,0,0,0,0,0,0,0,0,0,0,0,0,0,0,0,0,0,0,0,0,0,0,0,0,0,0,0,0,0,0,0,0],"id":9,"left_children":[1,3,5,7,9,11,13,15,17,19,21,23,25,27,29,31,33,35,37,-1,39,41,-1,43,45,47,49,51,53,55,57,-1,-1,-1,-1,-1,-1,-1,-1,-1,-1,-1,-1,-1,-1,-1,-1,-1,-1,-1,-1,-1,-1,-1,-1,-1,-1,-1,-1],"loss_changes":[6.334385E0,6.8618956E0,4.5108166E0,6.5150695E0,5.3845105E0,9.026263E0,4.286622E0,5.140278E0,5.480628E0,4.9706926E0,4.047897E0,6.843976E0,6.476082E0,9.017743E0,4.128364E0,6.646487E0,7.1344337E0,6.5026026E0,5.726596E0,0E0,4.0278616E0,3.674061E0,0E0,5.597828E0,4.425192E0,4.933393E0,6.009846E0,2.2136388E0,9.111196E0,8.038944E0,4.032869E0,0E0,0E0,0E0,0E0,0E0,0E0,0E0,0E0,0E0,0E0,0E0,0E0,0E0,0E0,0E0,0E0,0E0,0E0,0E0,0E0,0E0,0E0,0E0,0E0,0E0,0E0,0E0,0E0],"parents":[2147483647,0,0,1,1,2,2,3,3,4,4,5,5,6,6,7,7,8,8,9,9,10,10,11,11,12,12,13,13,14,14,15,15,16,16,17,17,18,18,20,20,21,21,23,23,24,24,25,25,26,26,27,27,28,28,29,29,30,30],"right_children":[2,4,6,8,10,12,14,16,18,20,22,24,26,28,30,32,34,36,38,-1,40,42,-1,44,46,48,50,52,54,56,58,-1,-1,-1,-1,-1,-1,-1,-1,-1,-1,-1,-1,-1,-1,-1,-1,-1,-1,-1,-1,-1,-1,-1,-1,-1,-1,-1,-1],"split_conditions":[3.970336E-1,9.9619293E-1,3.6037344E-1,1.26314275E-2,4.120773E-1,1.9640127E-1,3.1865694E-2,5.329E-1,2.6170904E-2,4.8058208E-2,9.3297035E-1,8.571484E-1,6.5891856E-1,7.6431367E-3,4.0501025E-1,8.6168635E-1,2.1994431E-1,9.830203E-1,9.400641E-1,-8.6139135E-2,9.9749245E-2,3.0844128E-1,2.583657E-1,6.7279387E-1,3.8913494E-1,6.789023E-2,4.0365252E-1,5.8236754E-1,9.199689E-2,1.5803209E-1,8.7323284E-1,-2.594553E-2,1.875631E-1,-4.460272E-2,1.4217578E-1,-4.078777E-2,2.606671E-1,-2.658477E-3,-2.6499009E-2,-7.1946084E-2,2.515909E-1,1.0852207E-1,-7.40967E-2,4.702106E-2,9.839055E-3,2.9957382E-2,-4.5057446E-2,4.5997165E-2,7.782969E-3,-2.5944982E-2,3.7916035E-3,3.402967E-1,1.6860897E-2,8.781914E-2,-4.4677075E-2,1.8732668E-1,1.9342516E-2,2.616764E-3,-1.1915336E-2],"split_indices":[26,14,2,30,47,33,43,25,7,27,19,43,10,38,26,2,47,37,7,0,31,17,0,21,17,5,18,45,47,43,5,0,0,0,0,0,0,0,0,0,0,0,0,0,0,0,0,0,0,0,0,0,0,0,0,0,0,0,0],"split_type":[0,0,0,0,0,0,0,0,0,0,0,0,0,0,0,0,0,0,0,0,0,0,0,0,0,0,0,0,0,0,0,0,0,0,0,0,0,0,0,0,0,0,0,0,0,0,0,0,0,0,0,0,0,0,0,0,0,0,0],"sum_hessian":[1.9207744E4,7.625582E3,1.1582161E4,7.590971E3,3.4611103E1,4.2297188E3,7.352443E3,9.091893E1,7.5000522E3,1.4777878E1,1.9833225E1,8.5672015E2,3.3729988E3,2.3272522E2,7.1197173E3,4.776814E1,4.315079E1,2.0940472E2,7.2906475E3,2.0405412E0,1.2737336E1,1.8436983E1,1.3962424E0,7.2734393E2,1.2937619E2,2.2490505E3,1.1239481E3,3.5625346E0,2.2916269E2,9.7896484E1,7.021821E3,4.202123E1,5.746909E0,1.0252783E1,3.289801E1,2.0748741E2,1.9173084E0,6.863459E3,4.2718823E2,1.3161898E0,1.1421146E1,5.4524136E0,1.2984569E1,4.829627E2,2.4438121E2,5.1383495E1,7.79927E1,1.4347589E2,2.1055747E3,4.5827338E2,6.656747E2,2.274159E0,1.2883755E0,2.2131126E1,2.0703156E2,1.2201617E1,8.569487E1,6.150652E3,8.711691E2],"tree_param":{"num_deleted":"0","num_feature":"50","num_nodes":"59","size_leaf_vector":"1"}},{"base_weights":[-3.1426577E-3,2.6545757E-1,-4.2742207E-3,4.3347374E-1,-5.7541296E-2,-6.38696E-2,-3.5897235E-4,5.8695856E-2,6.37496E-1,-2.0372958E-1,6.9614285E-1,-8.3578E-2,1.335993E-1,7.234619E-2,-3.730749E-3,9.8955303E-1,-1.7026207E-1,1.0011055E0,3.2674056E-1,-4.1424224E-1,2.2430877E-1,-7.406845E-2,2.4397497E-1,-9.517398E-2,3.8506705E-1,4.6599984E-1,2.1249479E-2,-3.0200174E-1,8.857412E-2,-4.0124156E-2,3.8760433E-3,1.3264819E-2,2.8148347E-1,2.0004646E-1,-6.474142E-2,2.3737483E-1,-7.627355E-2,-7.616484E-2,1.221109E-1,-1.0405687E-1,8.579022E-2,1.5165804E-1,-9.5795065E-2,-3.3247225E-2,-8.565249E-3,-4.0529564E-2,1.5446171E-1,1.8508235E-2,2.7494183E-1,5.5056836E-2,-4.5455094E-2,8.014982E-2,-1.0289969E-1,2.0063227E-2,-8.41743E-2,-4.3513686E-3,-2.4512162E-2,-5.7347E-2,9.820807E-4],"categories":[],"categories_nodes":[],"categories_segments":[],"categories_sizes":[],"default_left":[0,0,0,0,0,0,0,0,0,0,0,0,0,0,0,0,0,0,0,0,0,0,0,0,0,0,0,0,0,0,0,0,0,0,0,0,0,0,0,0,0,0,0,0,0,0,0,0,0,0,0,0,0,0,0,0,0,0,0],"id":10,"left_children":[1,3,5,7,9,11,13,15,17,19,21,23,25,27,29,31,33,35,37,39,41,-1,-1,43,45,47,49,51,53,55,57,-1,-1,-1,-1,-1,-1,-1,-1,-1,-1,-1,-1,-1,-1,-1,-1,-1,-1,-1,-1,-1,-1,-1,-1,-1,-1,-1,-1],"loss_changes":[5.8292055E0,4.3913465E0,4.4555974E0,4.018508E0,3.2724955E0,4.5925546E0,4.3931646E0,4.3882046E0,3.542389E0,2.3070202E0,3.156512E0,5.856773E0,3.9939659E0,4.8517556E0,4.741346E0,1.4711323E0,3.3310719E0,4.3809814E0,4.238631E0,1.7273371E0,3.6489437E0,0E0,0E0,3.883644E0,6.0870314E0,9.047706E0,5.1875944E0,5.168051E0,4.6006026E0,4.4805417E0,4.259775E0,0E0,0E0,0E0,0E0,0E0,0E0,0E0,0E0,0E0,0E0,0E0,0E0,0E0,0E0,0E0,0E0,0E0,0E0,0E0,0E0,0E0,0E0,0E0,0E0,0E0,0E0,0E0,0E0],"parents":[2147483647,0,0,1,1,2,2,3,3,4,4,5,5,6,6,7,7,8,8,9,9,10,10,11,11,12,12,13,13,14,14,15,15,16,16,17,17,18,18,19,19,20,20,23,23,24,24,25,25,26,26,27,27,28,28,29,29,30,30],"right_children":[2,4,6,8,10,12,14,16,18,20,22,24,26,28,30,32,34,36,38,40,42,-1,-1,44,46,48,50,52,54,56,58,-1,-1,-1,-1,-1,-1,-1,-1,-1,-1,-1,-1,-1,-1,-1,-1,-1,-1,-1,-1,-1,-1,-1,-1,-1,-1,-1,-1],"split_conditions":[3.446261E-3,6.345826E-1,6.125846E-2,4.1648534E-1,8.873327E-1,9.101002E-1,4.296197E-2,2.0186259E-1,4.8560637E-1,6.251749E-1,5.017668E-1,9.8016804E-1,2.3398945E-1,3.948775E-2,1.779323E-1,3.6438498E-1,2.6840523E-2,8.67644E-1,2.8573933E-1,9.125935E-1,6.637017E-1,-7.406845E-2,2.4397497E-1,4.3649063E-1,5.288794E-1,7.0564294E-1,5.0120366E-1,1.7052603E-1,9.7969186E-1,8.1200504E-1,4.608773E-3,1.3264819E-2,2.8148347E-1,2.0004646E-1,-6.474142E-2,2.3737483E-1,-7.627355E-2,-7.616484E-2,1.221109E-1,-1.0405687E-1,8.579022E-2,1.5165804E-1,-9.5795065E-2,-3.3247225E-2,-8.565249E-3,-4.0529564E-2,1.5446171E-1,1.8508235E-2,2.7494183E-1,5.5056836E-2,-4.5455094E-2,8.014982E-2,-1.0289969E-1,2.0063227E-2,-8.41743E-2,-4.3513686E-3,-2.4512162E-2,-5.7347E-2,9.820807E-4],"split_indices":[7,29,45,3,17,43,48,26,1,4,21,24,14,32,23,1,8,36,26,41,2,0,0,25,15,8,39,49,49,18,42,0,0,0,0,0,0,0,0,0,0,0,0,0,0,0,0,0,0,0,0,0,0,0,0,0,0,0,0],"split_type":[0,0,0,0,0,0,0,0,0,0,0,0,0,0,0,0,0,0,0,0,0,0,0,0,0,0,0,0,0,0,0,0,0,0,0,0,0,0,0,0,0,0,0,0,0,0,0,0,0,0,0,0,0,0,0,0,0,0,0],"sum_hessian":[1.9174188E4,7.945848E1,1.909473E4,5.204428E1,2.74142E1,1.1761914E3,1.791854E4,1.8799082E1,3.32452E1,2.3571789E1,3.8424115E0,1.0699789E3,1.0621257E2,7.9325397E2,1.7125283E4,3.0553176E0,1.5743764E1,1.4296083E1,1.8949118E1,1.5822425E1,7.749363E0,1.3619422E0,2.4804695E0,1.0449207E3,2.5058208E1,2.6035532E1,8.017704E1,3.222702E1,7.61027E2,2.9598948E3,1.416539E4,1.3130305E0,1.742287E0,1.1851104E0,1.4558653E1,1.2727342E1,1.5687412E0,5.3269386E0,1.3622179E1,1.439503E1,1.4273953E0,4.36042E0,3.3889427E0,4.4230936E2,6.0261127E2,1.0142168E1,1.491604E1,1.9233034E1,6.802498E0,3.9595768E1,4.0581272E1,7.276593E0,2.4950426E1,7.446665E2,1.636044E1,2.4216113E3,5.3828357E2,4.9259865E1,1.411613E4],"tree_param":{"num_deleted":"0","num_feature":"50","num_nodes":"59","size_leaf_vector":"1"}},{"base_weights":[2.4932376E-3,1.18062414E-1,-3.735802E-4,3.116173E-1,5.436877E-2,2.0283074E-3,-1.0042595E-1,9.6381223E-1,2.4088117E-1,2.0771084E-2,5.1030314E-1,4.610101E-2,-3.590685E-3,-2.2039184E-2,-2.596262E-1,-7.293204E-2,1.1877006E0,6.0851586E-1,1.1812137E-1,9.960131E-2,-1.6483511E-1,1.1741361E-1,1.0919884E0,1.6423362E-1,-3.798521E-3,8.515932E-3,-4.4094272E-2,-8.6488076E-2,2.5312397E-1,-4.2521283E-1,-8.500117E-2,1.1325719E-2,2.7336773E-1,-1.4038185E-2,1.7356896E-1,1.9375679E-1,5.0574834E-3,1.7474759E-1,1.3125205E-2,1.1873845E-1,-4.277898E-2,1.5674467E-1,-4.3021873E-2,-3.74777E-2,3.209925E-1,1.4983165E-2,5.4032244E-2,-1.9377964E-2,8.31805E-3,-4.271379E-4,1.008637E-2,1.5375048E-2,-1.1014777E-2,-4.681813E-2,2.0867305E-2,1.7863978E-1,-9.3525316E-4,3.4461003E-2,-9.617453E-2,2.1705528E-1,-2.9907737E-2],"categories":[],"categories_nodes":[],"categories_segments":[],"categories_sizes":[],"default_left":[0,0,0,0,0,0,0,0,0,0,0,0,0,0,0,0,0,0,0,0,0,0,0,0,0,0,0,0,0,0,0,0,0,0,0,0,0,0,0,0,0,0,0,0,0,0,0,0,0,0,0,0,0,0,0,0,0,0,0,0,0],"id":11,"left_children":[1,3,5,7,9,11,13,15,17,19,21,23,25,27,29,-1,31,33,35,37,39,41,43,45,47,49,51,53,55,57,59,-1,-1,-1,-1,-1,-1,-1,-1,-1,-1,-1,-1,-1,-1,-1,-1,-1,-1,-1,-1,-1,-1,-1,-1,-1,-1,-1,-1,-1,-1],"loss_changes":[6.3661513E0,5.716975E0,4.5062256E0,5.070758E0,5.3685646E0,4.535005E0,5.480103E0,3.6792278E0,4.6683316E0,4.8169746E0,5.370039E0,1.2207088E1,7.964917E0,5.265019E0,4.15497E0,0E0,1.8626175E0,4.6462574E0,6.2916265E0,6.0160646E0,3.7807806E0,3.5983791E0,6.586931E0,5.797989E0,6.1593404E0,5.5834184E0,4.968775E0,6.792563E0,9.304498E0,2.5488195E0,5.584817E0,0E0,0E0,0E0,0E0,0E0,0E0,0E0,0E0,0E0,0E0,0E0,0E0,0E0,0E0,0E0,0E0,0E0,0E0,0E0,0E0,0E0,0E0,0E0,0E0,0E0,0E0,0E0,0E0,0E0,0E0],"parents":[2147483647,0,0,1,1,2,2,3,3,4,4,5,5,6,6,7,7,8,8,9,9,10,10,11,11,12,12,13,13,14,14,16,16,17,17,18,18,19,19,20,20,21,21,22,22,23,23,24,24,25,25,26,26,27,27,28,28,29,29,30,30],"right_children":[2,4,6,8,10,12,14,16,18,20,22,24,26,28,30,-1,32,34,36,38,40,42,44,46,48,50,52,54,56,58,60,-1,-1,-1,-1,-1,-1,-1,-1,-1,-1,-1,-1,-1,-1,-1,-1,-1,-1,-1,-1,-1,-1,-1,-1,-1,-1,-1,-1,-1,-1],"split_conditions":[2.1999523E-2,2.511182E-1,9.7653615E-1,1.1618558E-1,9.244659E-1,1.17164955E-1,6.61466E-1,3.540859E-2,2.3750868E-1,6.896613E-1,6.9012994E-1,3.1035435E-1,7.703494E-1,8.3003235E-1,5.139702E-1,-7.293204E-2,8.1828736E-2,3.1035435E-1,8.647234E-2,4.645797E-2,4.7738954E-2,2.044325E-1,2.4491632E-1,5.376059E-1,3.2476503E-1,7.950994E-1,8.621024E-2,5.641661E-1,2.9880342E-1,1.0031238E-1,4.2527843E-2,1.1325719E-2,2.7336773E-1,-1.4038185E-2,1.7356896E-1,1.9375679E-1,5.0574834E-3,1.7474759E-1,1.3125205E-2,1.1873845E-1,-4.277898E-2,1.5674467E-1,-4.3021873E-2,-3.74777E-2,3.209925E-1,1.4983165E-2,5.4032244E-2,-1.9377964E-2,8.31805E-3,-4.271379E-4,1.008637E-2,1.5375048E-2,-1.1014777E-2,-4.681813E-2,2.0867305E-2,1.7863978E-1,-9.3525316E-4,3.4461003E-2,-9.617453E-2,2.1705528E-1,-2.9907737E-2],"split_indices":[49,1,30,45,44,26,13,37,26,45,8,9,15,3,22,0,48,9,33,2,8,45,32,47,23,33,11,44,2,46,1,0,0,0,0,0,0,0,0,0,0,0,0,0,0,0,0,0,0,0,0,0,0,0,0,0,0,0,0,0,0],"split_type":[0,0,0,0,0,0,0,0,0,0,0,0,0,0,0,0,0,0,0,0,0,0,0,0,0,0,0,0,0,0,0,0,0,0,0,0,0,0,0,0,0,0,0,0,0,0,0,0,0,0,0,0,0,0,0,0,0,0,0,0,0],"sum_hessian":[1.9213621E4,4.6410516E2,1.8749516E4,1.1394671E2,3.5015845E2,1.8310918E4,4.3859772E2,9.913913E0,1.040328E2,3.271001E2,2.3058367E1,2.0697307E3,1.62411875E4,2.9465457E2,1.4394313E2,1.3391463E0,8.574766E0,2.505185E1,7.898095E1,2.2991466E2,9.718544E1,1.4479968E1,8.578398E0,6.139555E2,1.4557753E3,1.2504387E4,3.7368005E3,2.3929292E2,5.5361664E1,7.3147064E1,7.079606E1,1.3523277E0,7.222439E0,7.1274548E0,1.7924395E1,6.842806E0,7.213814E1,8.627089E0,2.2128757E2,5.229484E0,9.1955956E1,4.368821E0,1.0111147E1,2.6368053E0,5.9415927E0,3.3401898E2,2.799365E2,4.7677872E2,9.789965E2,9.971413E3,2.532974E3,3.1044333E2,3.4263572E3,1.347992E2,1.0449372E2,1.5187914E1,4.0173748E1,6.054565E0,6.70925E1,2.8735175E0,6.792254E1],"tree_param":{"num_deleted":"0","num_feature":"50","num_nodes":"61","size_leaf_vector":"1"}},{"base_weights":[4.3840697E-3,2.1638544E-2,-9.457562E-3,4.656102E-2,-4.724449E-3,1.8460972E-2,-2.9565424E-2,4.123199E-2,3.5192087E-1,3.128428E-1,-8.965085E-3,-1.8096545E-1,2.591847E-2,-2.1223478E-2,-1.19653754E-1,6.866592E-2,-8.437448E-3,6.804509E-1,-1.0349833E-2,1.0166804E0,1.2666167E-1,1.328474E-1,-1.9806676E-2,1.9355753E-1,-2.6066414E-1,1.9963713E-2,2.407739E-1,3.8890872E-2,-3.7404615E-2,-4.7384985E-3,-2.373951E-1,1.9380031E-2,-1.0969554E-3,9.573482E-2,-3.294532E-3,2.72233E-1,6.762042E-2,1.1671912E-1,-4.253613E-2,2.6450726E-1,-2.6804838E-2,2.0809893E-1,-1.5273847E-2,7.835792E-2,1.1260944E-2,-5.4014786E-3,3.601784E-2,2.978249E-1,-9.402458E-3,-6.2622845E-2,4.3064494E-2,-7.100464E-4,1.2749085E-2,4.8912005E-3,1.0224785E-1,-1.1983237E-2,1.8062271E-2,8.449792E-3,-9.952158E-3,-2.2401867E-2,3.4512702E-2,-5.867706E-2,4.176657E-2],"categories":[],"categories_nodes":[],"categories_segments":[],"categories_sizes":[],"default_left":[0,0,0,0,0,0,0,0,0,0,0,0,0,0,0,0,0,0,0,0,0,0,0,0,0,0,0,0,0,0,0,0,0,0,0,0,0,0,0,0,0,0,0,0,0,0,0,0,0,0,0,0,0,0,0,0,0,0,0,0,0,0,0],"id":12,"left_children":[1,3,5,7,9,11,13,15,17,19,21,23,25,27,29,31,33,35,37,39,41,43,45,47,49,51,53,55,57,59,61,-1,-1,-1,-1,-1,-1,-1,-1,-1,-1,-1,-1,-1,-1,-1,-1,-1,-1,-1,-1,-1,-1,-1,-1,-1,-1,-1,-1,-1,-1,-1,-1],"loss_changes":[4.5925837E0,5.6240396E0,5.9906073E0,7.145528E0,5.605589E0,6.6496816E0,4.6592026E0,5.8948784E0,8.973517E0,7.0590963E0,6.3163667E0,4.8616414E0,5.5067363E0,5.5251827E0,7.1090374E0,5.8347025E0,6.035515E0,8.750477E0,4.548197E0,4.1655636E0,8.339522E0,5.761073E0,5.4972816E0,9.063555E0,3.3960447E0,4.3166203E0,6.7791195E0,6.1268873E0,4.4062634E0,5.096769E0,6.5456686E0,0E0,0E0,0E0,0E0,0E0,0E0,0E0,0E0,0E0,0E0,0E0,0E0,0E0,0E0,0E0,0E0,0E0,0E0,0E0,0E0,0E0,0E0,0E0,0E0,0E0,0E0,0E0,0E0,0E0,0E0,0E0,0E0],"parents":[2147483647,0,0,1,1,2,2,3,3,4,4,5,5,6,6,7,7,8,8,9,9,10,10,11,11,12,12,13,13,14,14,15,15,16,16,17,17,18,18,19,19,20,20,21,21,22,22,23,23,24,24,25,25,26,26,27,27,28,28,29,29,30,30],"right_children":[2,4,6,8,10,12,14,16,18,20,22,24,26,28,30,32,34,36,38,40,42,44,46,48,50,52,54,56,58,60,62,-1,-1,-1,-1,-1,-1,-1,-1,-1,-1,-1,-1,-1,-1,-1,-1,-1,-1,-1,-1,-1,-1,-1,-1,-1,-1,-1,-1,-1,-1,-1,-1],"split_conditions":[4.4719058E-1,5.1504844E-1,4.2225322E-1,9.845061E-1,1.11722285E-2,4.666018E-1,9.133215E-1,6.4690506E-1,4.9051684E-1,2.2992481E-1,6.486201E-2,1.8532714E-1,9.7264653E-1,2.1254705E-1,4.9874383E-1,7.3121184E-1,1.5515301E-2,2.588082E-1,2.685023E-1,8.199172E-1,1.5401839E-1,2.2794843E-1,9.657478E-1,1.1970869E-1,9.2230374E-1,6.5497506E-1,5.813969E-1,3.4279275E-1,1.3114311E-1,6.369688E-1,8.7982225E-1,1.9380031E-2,-1.0969554E-3,9.573482E-2,-3.294532E-3,2.72233E-1,6.762042E-2,1.1671912E-1,-4.253613E-2,2.6450726E-1,-2.6804838E-2,2.0809893E-1,-1.5273847E-2,7.835792E-2,1.1260944E-2,-5.4014786E-3,3.601784E-2,2.978249E-1,-9.402458E-3,-6.2622845E-2,4.3064494E-2,-7.100464E-4,1.2749085E-2,4.8912005E-3,1.0224785E-1,-1.1983237E-2,1.8062271E-2,8.449792E-3,-9.952158E-3,-2.2401867E-2,3.4512702E-2,-5.867706E-2,4.176657E-2],"split_indices":[20,43,0,10,21,20,39,32,24,42,7,17,4,31,24,24,3,1,44,11,30,36,40,14,17,1,10,24,38,35,28,0,0,0,0,0,0,0,0,0,0,0,0,0,0,0,0,0,0,0,0,0,0,0,0,0,0,0,0,0,0,0,0],"split_type":[0,0,0,0,0,0,0,0,0,0,0,0,0,0,0,0,0,0,0,0,0,0,0,0,0,0,0,0,0,0,0,0,0,0,0,0,0,0,0,0,0,0,0,0,0,0,0,0,0,0,0,0,0,0,0,0,0,0,0,0,0,0,0],"sum_hessian":[1.9227648E4,8.558442E3,1.0669206E4,4.399023E3,4.1594194E3,4.467055E3,6.202151E3,4.324685E3,7.4337875E1,5.3851955E1,4.1055674E3,1.6018427E2,4.3068706E3,5.6776504E3,5.245001E2,2.7856846E3,1.5390002E3,3.8523773E1,3.58141E1,1.033205E1,4.3519905E1,2.907808E2,3.8147869E3,2.78556E1,1.3232867E2,4.1917876E3,1.1508325E2,1.2038475E3,4.473803E3,2.6596204E2,2.5853806E2,2.0172666E3,7.684181E2,2.4024302E1,1.514976E3,1.189541E1,2.6628365E1,8.621419E0,2.7192678E1,8.044504E0,2.2875462E0,7.161501E0,3.6358402E1,6.540353E1,2.2537727E2,3.682982E3,1.3180472E2,3.5495942E0,2.4306005E1,1.1950257E2,1.2826097E1,2.7277224E3,1.4640652E3,6.454814E1,5.053512E1,4.120012E2,7.918463E2,6.004712E2,3.873332E3,1.6593607E2,1.00025986E2,2.3001906E2,2.8518993E1],"tree_param":{"num_deleted":"0","num_feature":"50","num_nodes":"63","size_leaf_vector":"1"}},{"base_weights":[-6.197033E-3,4.6352107E-2,-1.1722979E-2,1.3588111E-1,1.8002257E-2,-1.9515192E-2,2.1183232E-2,1.1355585E-1,6.722019E-1,8.0479465E-2,-4.254558E-2,-9.1794826E-2,-1.5064994E-2,3.4102727E-2,-1.0213916E-1,2.982023E-1,5.739998E-2,1.2057139E-1,1.1059009E0,2.1811324E-1,1.4568116E-2,2.3490103E-2,-1.7396647E-1,6.301692E-1,-1.0145072E-1,-2.1277007E-2,4.786795E-2,1.7100173E-1,2.1831384E-2,6.5832293E-1,-1.2229235E-1,2.1904881E-1,4.7416046E-2,1.6395982E-1,7.2954386E-3,-5.2261658E-2,2.125517E-1,-6.407564E-2,2.623944E-1,1.7763062E-1,3.5105508E-2,1.6993898E-1,5.255018E-4,1.5504916E-2,-3.8753655E-2,5.6225795E-2,-4.1817483E-2,2.567081E-1,-3.3808373E-2,3.2399964E-2,-2.3693036E-2,-8.03332E-3,-3.7964876E-4,-6.1149534E-2,1.2811436E-2,1.4398426E-1,2.4141675E-2,8.528118E-2,3.4177862E-3,-5.1623203E-2,2.73661E-1,-4.8662905E-2,-3.340542E-3],"categories":[],"categories_nodes":[],"categories_segments":[],"categories_sizes":[],"default_left":[0,0,0,0,0,0,0,0,0,0,0,0,0,0,0,0,0,0,0,0,0,0,0,0,0,0,0,0,0,0,0,0,0,0,0,0,0,0,0,0,0,0,0,0,0,0,0,0,0,0,0,0,0,0,0,0,0,0,0,0,0,0,0],"id":13,"left_children":[1,3,5,7,9,11,13,15,17,19,21,23,25,27,29,31,33,35,37,39,41,43,45,47,49,51,53,55,57,59,61,-1,-1,-1,-1,-1,-1,-1,-1,-1,-1,-1,-1,-1,-1,-1,-1,-1,-1,-1,-1,-1,-1,-1,-1,-1,-1,-1,-1,-1,-1,-1,-1],"loss_changes":[5.562854E0,4.6241584E0,4.4448566E0,5.170926E0,5.244945E0,4.5066843E0,5.2917356E0,4.35786E0,4.007972E0,6.186209E0,6.1164865E0,5.7291036E0,5.162763E0,5.0447016E0,4.9080515E0,4.522231E0,5.150706E0,3.422933E0,3.232686E0,6.1462126E0,4.608958E0,5.528485E0,3.8255038E0,5.8899665E0,3.617669E0,4.3991613E0,6.8120623E0,6.733912E0,5.2864714E0,5.7464147E0,3.9280257E0,0E0,0E0,0E0,0E0,0E0,0E0,0E0,0E0,0E0,0E0,0E0,0E0,0E0,0E0,0E0,0E0,0E0,0E0,0E0,0E0,0E0,0E0,0E0,0E0,0E0,0E0,0E0,0E0,0E0,0E0,0E0,0E0],"parents":[2147483647,0,0,1,1,2,2,3,3,4,4,5,5,6,6,7,7,8,8,9,9,10,10,11,11,12,12,13,13,14,14,15,15,16,16,17,17,18,18,19,19,20,20,21,21,22,22,23,23,24,24,25,25,26,26,27,27,28,28,29,29,30,30],"right_children":[2,4,6,8,10,12,14,16,18,20,22,24,26,28,30,32,34,36,38,40,42,44,46,48,50,52,54,56,58,60,62,-1,-1,-1,-1,-1,-1,-1,-1,-1,-1,-1,-1,-1,-1,-1,-1,-1,-1,-1,-1,-1,-1,-1,-1,-1,-1,-1,-1,-1,-1,-1,-1],"split_conditions":[9.403106E-2,2.2921067E-1,8.0522513E-1,9.640684E-1,4.9325943E-1,5.7437353E-2,9.04416E-1,2.1005097E-1,3.7087363E-1,3.158507E-1,6.488945E-1,1.1890405E-2,9.104683E-1,8.187787E-2,2.6808664E-2,5.563638E-2,3.209115E-2,9.2225784E-1,1.8702605E-1,3.9639693E-2,1.5515301E-2,7.961068E-1,8.473917E-2,4.845024E-1,5.7598792E-2,5.0998265E-1,4.237311E-2,6.084592E-2,1.1892667E-2,5.2795273E-1,4.7359863E-1,2.1904881E-1,4.7416046E-2,1.6395982E-1,7.2954386E-3,-5.2261658E-2,2.125517E-1,-6.407564E-2,2.623944E-1,1.7763062E-1,3.5105508E-2,1.6993898E-1,5.255018E-4,1.5504916E-2,-3.8753655E-2,5.6225795E-2,-4.1817483E-2,2.567081E-1,-3.3808373E-2,3.2399964E-2,-2.3693036E-2,-8.03332E-3,-3.7964876E-4,-6.1149534E-2,1.2811436E-2,1.4398426E-1,2.4141675E-2,8.528118E-2,3.4177862E-3,-5.1623203E-2,2.73661E-1,-4.8662905E-2,-3.340542E-3],"split_indices":[37,35,5,13,33,38,8,40,38,6,45,29,46,6,14,27,3,34,15,34,3,23,40,6,13,16,12,38,43,40,41,0,0,0,0,0,0,0,0,0,0,0,0,0,0,0,0,0,0,0,0,0,0,0,0,0,0,0,0,0,0,0,0],"split_type":[0,0,0,0,0,0,0,0,0,0,0,0,0,0,0,0,0,0,0,0,0,0,0,0,0,0,0,0,0,0,0,0,0,0,0,0,0,0,0,0,0,0,0,0,0,0,0,0,0,0,0,0,0,0,0,0,0,0,0,0,0,0,0],"sum_hessian":[1.9154033E4,1.8218368E3,1.7332197E4,4.372393E2,1.3845974E3,1.4014064E4,3.318133E3,4.2092914E2,1.6310163E1,6.8127954E2,7.0331793E2,8.1165326E2,1.3202411E4,3.0041372E3,3.1399588E2,9.7156845E1,3.2377228E2,7.741544E0,8.568619E0,2.1986208E2,4.6141748E2,4.686529E2,2.3466501E2,9.864029E0,8.017892E2,1.2016903E4,1.1855078E3,2.4606818E2,2.758069E3,7.2889276E0,3.0670694E2,5.7148833E0,9.144196E1,7.628208E0,3.1614407E2,6.0230055E0,1.7185383E0,1.0116934E0,7.556926E0,1.1952164E1,2.0790991E2,5.515323E0,4.5590216E2,3.758245E2,9.282839E1,1.6310446E1,2.1835457E2,5.093765E0,4.7702646E0,4.812374E1,7.5366547E2,6.084712E3,5.932191E3,5.1115883E1,1.134392E3,1.953557E1,2.265326E2,3.0925539E1,2.7271436E3,3.459666E0,3.8292615E0,1.4230217E2,1.6440479E2],"tree_param":{"num_deleted":"0","num_feature":"50","num_nodes":"63","size_leaf_vector":"1"}},{"base_weights":[2.4334872E-3,-1.3606815E-2,1.941186E-2,-1.49554135E-2,3.347638E-1,2.4772484E-2,-7.971105E-2,-1.1215488E-1,-9.914694E-3,1.0165102E0,-2.3774518E-2,1.2539363E-1,1.9744646E-2,2.3785391E-1,-1.0666958E-1,-1.4393866E-1,1.8013944E-1,-1.184737E-1,-5.063685E-3,1.3515158E0,-8.625039E-2,5.833246E-1,-3.5906392E-1,-4.312227E-2,1.955306E-1,1.48103945E-2,1.3283756E-1,8.829547E-1,-5.193969E-3,-1.22138254E-1,4.9697843E-1,1.3402869E-1,-3.1232988E-2,1.4839695E-1,-1.4937482E-2,-6.279475E-2,-1.0323443E-2,-1.6200154E-3,3.6773674E-2,3.372074E-1,-7.639679E-2,2.7287126E-1,-3.415132E-2,-1.04069866E-1,1.2320127E-1,2.0422053E-2,-6.850326E-2,6.6724814E-2,1.3009176E-2,4.575045E-2,2.4503332E-3,6.562379E-2,8.918195E-3,-8.695601E-2,2.6097915E-1,-5.102509E-2,1.9011562E-1,4.102663E-3,-3.6700454E-2,-9.2995815E-2,1.7705394E-1],"categories":[],"categories_nodes":[],"categories_segments":[],"categories_sizes":[],"default_left":[0,0,0,0,0,0,0,0,0,0,0,0,0,0,0,0,0,0,0,0,0,0,0,0,0,0,0,0,0,0,0,0,0,0,0,0,0,0,0,0,0,0,0,0,0,0,0,0,0,0,0,0,0,0,0,0,0,0,0,0,0],"id":14,"left_children":[1,3,5,7,9,11,13,15,17,19,21,23,25,27,29,31,33,35,37,39,-1,41,43,45,47,49,51,53,55,57,59,-1,-1,-1,-1,-1,-1,-1,-1,-1,-1,-1,-1,-1,-1,-1,-1,-1,-1,-1,-1,-1,-1,-1,-1,-1,-1,-1,-1,-1,-1],"loss_changes":[5.23319E0,4.6471925E0,4.9621553E0,4.8219056E0,9.348272E0,4.4781866E0,4.127596E0,4.53381E0,4.9283414E0,6.970413E0,5.4969583E0,4.9878983E0,4.705783E0,5.9319124E0,4.191361E0,4.4661093E0,6.932414E0,5.2159214E0,5.141739E0,6.9863796E0,0E0,5.9004974E0,3.0495574E0,5.4543185E0,5.3420143E0,4.422985E0,6.0611234E0,6.3226795E0,7.0392833E0,3.786374E0,4.6136713E0,0E0,0E0,0E0,0E0,0E0,0E0,0E0,0E0,0E0,0E0,0E0,0E0,0E0,0E0,0E0,0E0,0E0,0E0,0E0,0E0,0E0,0E0,0E0,0E0,0E0,0E0,0E0,0E0,0E0,0E0],"parents":[2147483647,0,0,1,1,2,2,3,3,4,4,5,5,6,6,7,7,8,8,9,9,10,10,11,11,12,12,13,13,14,14,15,15,16,16,17,17,18,18,19,19,21,21,22,22,23,23,24,24,25,25,26,26,27,27,28,28,29,29,30,30],"right_children":[2,4,6,8,10,12,14,16,18,20,22,24,26,28,30,32,34,36,38,40,-1,42,44,46,48,50,52,54,56,58,60,-1,-1,-1,-1,-1,-1,-1,-1,-1,-1,-1,-1,-1,-1,-1,-1,-1,-1,-1,-1,-1,-1,-1,-1,-1,-1,-1,-1,-1,-1],"split_conditions":[5.15267E-1,9.957509E-1,9.494474E-1,4.902089E-2,3.5293722E-1,4.6712615E-2,8.661467E-2,9.11657E-1,4.2792715E-2,7.938852E-1,4.30016E-1,2.9825374E-1,9.563533E-1,1.9812517E-1,9.7100395E-1,1.576534E-2,2.5529823E-1,2.41203E-1,9.8472303E-1,8.9815724E-1,-8.625039E-2,4.0192226E-1,9.3220747E-1,7.09644E-1,5.002977E-1,1.1596279E-2,2.896888E-1,6.706163E-2,7.28773E-1,2.7841023E-1,3.791899E-1,1.3402869E-1,-3.1232988E-2,1.4839695E-1,-1.4937482E-2,-6.279475E-2,-1.0323443E-2,-1.6200154E-3,3.6773674E-2,3.372074E-1,-7.639679E-2,2.7287126E-1,-3.415132E-2,-1.04069866E-1,1.2320127E-1,2.0422053E-2,-6.850326E-2,6.6724814E-2,1.3009176E-2,4.575045E-2,2.4503332E-3,6.562379E-2,8.918195E-3,-8.695601E-2,2.6097915E-1,-5.102509E-2,1.9011562E-1,4.102663E-3,-3.6700454E-2,-9.2995815E-2,1.7705394E-1],"split_indices":[26,37,6,7,19,44,34,12,2,16,42,18,37,29,8,47,33,35,27,39,0,20,21,7,10,11,25,29,36,41,11,0,0,0,0,0,0,0,0,0,0,0,0,0,0,0,0,0,0,0,0,0,0,0,0,0,0,0,0,0,0],"split_type":[0,0,0,0,0,0,0,0,0,0,0,0,0,0,0,0,0,0,0,0,0,0,0,0,0,0,0,0,0,0,0,0,0,0,0,0,0,0,0,0,0,0,0,0,0,0,0,0,0,0,0,0,0,0,0,0,0,0,0,0,0],"sum_hessian":[1.9213805E4,9.879939E3,9.333865E3,9.842794E3,3.7145973E1,8.855694E3,4.7817102E2,4.842288E2,9.358564E3,1.2170017E1,2.4975956E1,4.2030344E2,8.435391E3,3.6804142E1,4.4136685E2,4.3719608E2,4.703269E1,3.993022E2,8.959263E3,9.937098E0,2.2329197E0,8.622917E0,1.6353039E1,1.23634895E2,2.9666855E2,8.0838237E3,3.5156686E2,9.351207E0,2.7452936E1,4.31117E2,1.02498455E1,5.6726656E0,4.3152344E2,1.407913E1,3.295356E1,1.00812515E2,2.984897E2,8.818495E3,1.4076791E2,8.3526325E0,1.5844648E0,3.8382227E0,4.7846947E0,1.4432174E1,1.9208648E0,8.369458E1,3.9940315E1,1.4337564E2,1.5329291E2,9.449451E1,7.9893296E3,1.0857731E2,2.4298955E2,2.260662E0,7.090545E0,2.23433E1,5.1096363E0,1.2987202E2,3.01245E2,2.8907545E0,7.3590913E0],"tree_param":{"num_deleted":"0","num_feature":"50","num_nodes":"61","size_leaf_vector":"1"}},{"base_weights":[-2.7454386E-3,2.3788768E-1,-3.7742998E-3,3.5057822E-1,-1.7069235E-1,-1.2589231E-2,2.0605491E-2,-1.0557907E-1,4.719391E-1,-4.067008E-1,2.1086091E-1,-2.3590641E-2,2.5867473E-2,2.607509E-2,-2.0124742E-1,-3.1391153E-1,5.76221E-1,1.5580818E-1,7.337116E-1,-1.121906E-1,7.874917E-2,-8.7245755E-2,6.242694E-1,-1.2977277E-1,-1.6965043E-2,4.9638424E-2,-5.4138858E-2,-2.7986072E-2,4.5786235E-2,8.0569476E-1,-2.3272249E-1,-1.09958366E-1,8.691548E-2,-6.771614E-2,2.131507E-1,6.417035E-2,-1.0038449E-1,-2.006688E-2,1.9049612E-1,2.0276742E-1,-6.869194E-2,-2.7394682E-2,2.184573E-1,7.459832E-3,-5.3802575E-3,8.725189E-3,1.0394869E-1,1.4106383E-2,-2.3582209E-2,-1.4867354E-3,-4.2949993E-2,-1.8451504E-2,1.1919434E-2,2.810641E-1,-3.0506921E-3,1.1230445E-1,-5.511576E-2],"categories":[],"categories_nodes":[],"categories_segments":[],"categories_sizes":[],"default_left":[0,0,0,0,0,0,0,0,0,0,0,0,0,0,0,0,0,0,0,0,0,0,0,0,0,0,0,0,0,0,0,0,0,0,0,0,0,0,0,0,0,0,0,0,0,0,0,0,0,0,0,0,0,0,0,0,0],"id":15,"left_children":[1,3,5,7,9,11,13,15,17,19,21,23,25,27,29,31,33,35,37,-1,-1,-1,39,41,43,45,47,49,51,53,55,-1,-1,-1,-1,-1,-1,-1,-1,-1,-1,-1,-1,-1,-1,-1,-1,-1,-1,-1,-1,-1,-1,-1,-1,-1,-1],"loss_changes":[4.7452645E0,3.8170223E0,4.101209E0,3.6087823E0,1.7348832E0,5.930356E0,6.15473E0,2.2158735E0,4.1029387E0,1.6600736E0,2.3207397E0,7.6651883E0,5.9328117E0,5.2725554E0,4.0557184E0,2.2906568E0,2.0203896E0,2.8047113E0,5.1329584E0,0E0,0E0,0E0,2.264717E0,5.7810526E0,5.5328226E0,6.7734E0,5.6906137E0,5.0741053E0,6.9173694E0,1.9528437E0,4.209631E0,0E0,0E0,0E0,0E0,0E0,0E0,0E0,0E0,0E0,0E0,0E0,0E0,0E0,0E0,0E0,0E0,0E0,0E0,0E0,0E0,0E0,0E0,0E0,0E0,0E0,0E0],"parents":[2147483647,0,0,1,1,2,2,3,3,4,4,5,5,6,6,7,7,8,8,9,9,10,10,11,11,12,12,13,13,14,14,15,15,16,16,17,17,18,18,22,22,23,23,24,24,25,25,26,26,27,27,28,28,29,29,30,30],"right_children":[2,4,6,8,10,12,14,16,18,20,22,24,26,28,30,32,34,36,38,-1,-1,-1,40,42,44,46,48,50,52,54,56,-1,-1,-1,-1,-1,-1,-1,-1,-1,-1,-1,-1,-1,-1,-1,-1,-1,-1,-1,-1,-1,-1,-1,-1,-1,-1],"split_conditions":[3.446261E-3,7.777766E-1,7.362312E-1,2.7392176E-1,5.2888006E-1,7.7509475E-1,9.760986E-1,6.994177E-1,5.211258E-1,8.873327E-1,4.7405127E-1,5.95211E-2,7.702017E-1,2.6381502E-1,4.003446E-2,7.240609E-1,8.362133E-1,6.8281776E-1,2.865286E-1,-1.121906E-1,7.874917E-2,-8.7245755E-2,4.4830185E-1,9.966325E-1,2.0417468E-1,7.620294E-1,2.5841057E-1,9.0302044E-1,9.062743E-2,1.3588448E-1,2.3444436E-2,-1.09958366E-1,8.691548E-2,-6.771614E-2,2.131507E-1,6.417035E-2,-1.0038449E-1,-2.006688E-2,1.9049612E-1,2.0276742E-1,-6.869194E-2,-2.7394682E-2,2.184573E-1,7.459832E-3,-5.3802575E-3,8.725189E-3,1.0394869E-1,1.4106383E-2,-2.3582209E-2,-1.4867354E-3,-4.2949993E-2,-1.8451504E-2,1.1919434E-2,2.810641E-1,-3.0506921E-3,1.1230445E-1,-5.511576E-2],"split_indices":[7,2,16,15,11,49,44,26,17,17,0,5,10,37,3,19,36,43,21,0,0,0,15,3,5,10,16,18,42,41,1,0,0,0,0,0,0,0,0,0,0,0,0,0,0,0,0,0,0,0,0,0,0,0,0,0,0],"split_type":[0,0,0,0,0,0,0,0,0,0,0,0,0,0,0,0,0,0,0,0,0,0,0,0,0,0,0,0,0,0,0,0,0,0,0,0,0,0,0,0,0,0,0,0,0,0,0,0,0,0,0,0,0,0,0,0,0],"sum_hessian":[1.9162113E4,8.06014E1,1.9081512E4,6.328791E1,1.7313492E1,1.40147295E4,5.066782E3,1.332678E1,4.9961132E1,1.0656218E1,6.657274E0,1.0897608E4,3.1171208E3,4.945732E3,1.2105043E2,1.062099E1,2.7057905E0,2.3353436E1,2.6607695E1,9.185333E0,1.4708841E0,2.573652E0,4.0836215E0,6.3896356E2,1.02586455E4,2.403414E3,7.137069E2,1.3213328E3,3.624399E3,2.9235377E0,1.1812689E2,8.277779E0,2.3432112E0,1.050693E0,1.6550975E0,1.9078318E1,4.275118E0,5.6414204E0,2.0966274E1,2.8775811E0,1.2060405E0,6.3610345E2,2.8601513E0,1.5872948E3,8.671351E3,2.3741423E3,2.9271675E1,2.4149425E2,4.7221265E2,1.1912786E3,1.300542E2,3.2911652E2,3.2952825E3,1.2781459E0,1.6453917E0,5.4280386E0,1.1269886E2],"tree_param":{"num_deleted":"0","num_feature":"50","num_nodes":"57","size_leaf_vector":"1"}},{"base_weights":[2.185671E-3,1.525707E-1,3.3210887E-4,3.1994453E-1,3.8974617E-2,-3.5600975E-2,6.7797904E-3,-2.3338388E-1,4.318782E-1,1.1062034E-1,-4.7833928E-1,-1.9540403E-2,-1.3553922E-1,-1.5515552E-2,1.9434713E-2,-3.882187E-1,1.4000855E-1,9.741498E-1,2.642124E-1,6.653164E-3,5.733784E-1,1.623716E-1,-1.1760016E-1,-3.3580177E-2,1.3797523E-1,-1.8526803E-1,9.445894E-2,-4.142823E-2,3.3683725E-2,2.1707772E-3,6.2352896E-2,1.8693695E-2,-1.1471789E-1,2.4758206E-1,-9.054037E-2,1.0052039E-2,2.025619E-1,-1.3579803E-2,9.682067E-2,-7.6102726E-2,1.8017451E-1,-7.151143E-2,1.3605355E-1,-3.7768602E-2,-4.166772E-3,-2.5065972E-2,5.4312855E-2,-3.9748456E-2,9.188068E-2,-2.134167E-2,1.0322509E-1,-2.531151E-3,-1.9262886E-2,3.5028975E-2,8.6642656E-4,-1.5977932E-2,2.4655943E-3,1.149769E-2,1.2391084E-1],"categories":[],"categories_nodes":[],"categories_segments":[],"categories_sizes":[],"default_left":[0,0,0,0,0,0,0,0,0,0,0,0,0,0,0,0,0,0,0,0,0,0,0,0,0,0,0,0,0,0,0,0,0,0,0,0,0,0,0,0,0,0,0,0,0,0,0,0,0,0,0,0,0,0,0,0,0,0,0],"id":16,"left_children":[1,3,5,7,9,11,13,15,17,19,21,23,25,27,29,31,-1,33,35,37,39,41,-1,43,45,47,49,51,53,55,57,-1,-1,-1,-1,-1,-1,-1,-1,-1,-1,-1,-1,-1,-1,-1,-1,-1,-1,-1,-1,-1,-1,-1,-1,-1,-1,-1,-1],"loss_changes":[5.357319E0,4.4366007E0,4.399108E0,5.951767E0,5.2615476E0,4.633895E0,4.542485E0,2.6628075E0,6.9184246E0,5.9740534E0,1.3098295E0,5.511028E0,4.5900507E0,7.4335127E0,7.6093388E0,1.378092E0,0E0,7.435255E0,9.824287E0,3.6802027E0,7.459824E0,1.1343693E0,0E0,4.5219955E0,7.208448E0,2.949584E0,6.1399913E0,6.0296855E0,8.352053E0,6.106417E0,7.949583E0,0E0,0E0,0E0,0E0,0E0,0E0,0E0,0E0,0E0,0E0,0E0,0E0,0E0,0E0,0E0,0E0,0E0,0E0,0E0,0E0,0E0,0E0,0E0,0E0,0E0,0E0,0E0,0E0],"parents":[2147483647,0,0,1,1,2,2,3,3,4,4,5,5,6,6,7,7,8,8,9,9,10,10,11,11,12,12,13,13,14,14,15,15,17,17,18,18,19,19,20,20,21,21,23,23,24,24,25,25,26,26,27,27,28,28,29,29,30,30],"right_children":[2,4,6,8,10,12,14,16,18,20,22,24,26,28,30,32,-1,34,36,38,40,42,-1,44,46,48,50,52,54,56,58,-1,-1,-1,-1,-1,-1,-1,-1,-1,-1,-1,-1,-1,-1,-1,-1,-1,-1,-1,-1,-1,-1,-1,-1,-1,-1,-1,-1],"split_conditions":[1.0836845E-2,4.310975E-1,1.5087216E-1,1.806595E-1,8.6338764E-1,8.637747E-1,3.6087862E-1,8.313029E-1,2.2302589E-1,8.2603943E-1,1.7858712E-1,9.161388E-1,8.296725E-1,6.5573114E-1,7.0808697E-1,2.6768538E-1,1.4000855E-1,7.675042E-1,7.840379E-1,8.595602E-1,2.5968528E-1,4.8657337E-1,-1.1760016E-1,7.7788904E-2,3.3838594E-1,9.8038715E-1,6.4978015E-1,6.608085E-1,1.6815281E-1,1.0759515E-1,9.9242634E-1,1.8693695E-2,-1.1471789E-1,2.4758206E-1,-9.054037E-2,1.0052039E-2,2.025619E-1,-1.3579803E-2,9.682067E-2,-7.6102726E-2,1.8017451E-1,-7.151143E-2,1.3605355E-1,-3.7768602E-2,-4.166772E-3,-2.5065972E-2,5.4312855E-2,-3.9748456E-2,9.188068E-2,-2.134167E-2,1.0322509E-1,-2.531151E-3,-1.9262886E-2,3.5028975E-2,8.6642656E-4,-1.5977932E-2,2.4655943E-3,1.149769E-2,1.2391084E-1],"split_indices":[49,36,48,42,16,36,19,32,17,7,7,5,7,18,24,9,0,12,23,20,24,22,0,24,7,1,40,16,36,21,48,0,0,0,0,0,0,0,0,0,0,0,0,0,0,0,0,0,0,0,0,0,0,0,0,0,0,0,0],"split_type":[0,0,0,0,0,0,0,0,0,0,0,0,0,0,0,0,0,0,0,0,0,0,0,0,0,0,0,0,0,0,0,0,0,0,0,0,0,0,0,0,0,0,0,0,0,0,0,0,0,0,0,0,0,0,0,0,0,0,0],"sum_hessian":[1.9218404E4,2.330013E2,1.8985404E4,9.346795E1,1.3953334E2,2.887694E3,1.6097709E4,1.5543889E1,7.7924065E1,1.2324992E2,1.6283415E1,2.4889094E3,3.987846E2,5.8286367E3,1.0269072E4,1.3833338E1,1.7105514E0,1.7267319E1,6.0656746E1,1.014677E2,2.1782225E1,2.3094573E0,1.3973957E1,2.285944E3,2.0296529E2,3.2805008E2,7.073451E1,3.8179338E3,2.0107029E3,7.32402E3,2.9450527E3,3.981961E0,9.851377E0,1.4685122E1,2.5821977E0,4.800411E1,1.26526375E1,8.850564E1,1.2962059E1,5.5256815E0,1.6256544E1,1.3069624E0,1.0024949E0,1.7237914E2,2.113565E3,6.8336105E1,1.3462918E2,3.2201144E2,6.038633E0,4.839386E1,2.234065E1,2.5056506E3,1.3122833E3,3.4465543E2,1.6660475E3,8.059387E2,6.518081E3,2.9206582E3,2.4394575E1],"tree_param":{"num_deleted":"0","num_feature":"50","num_nodes":"59","size_leaf_vector":"1"}},{"base_weights":[3.8246003E-3,8.4647164E-2,1.1591247E-3,6.77071E-2,5.1344043E-1,3.0672116E-2,-6.7581856E-3,5.6715544E-2,7.859477E-1,8.8493085E-1,-6.904449E-2,1.12362765E-2,1.213199E-1,1.3250798E-2,-2.5684433E-2,4.0397443E-2,5.661148E-1,-2.4913459E-1,1.434596E0,1.1838311E0,-2.102194E-1,7.6074666E-1,-1.0837717E-1,-3.4435112E-2,5.1086433E-2,2.809793E-1,4.057264E-2,7.7676154E-3,1.604174E-1,-4.8366554E-2,5.777728E-3,3.2904994E-2,-6.001714E-3,-9.110894E-2,1.5647705E-1,3.6191877E-2,-8.746179E-2,9.086407E-2,3.305532E-1,2.8360996E-1,-7.091758E-2,3.5970405E-2,-8.157819E-2,-6.7251205E-2,2.5359964E-1,-2.899002E-2,-6.1707845E-4,-1.721913E-2,1.453784E-2,6.881113E-2,-2.3355372E-2,1.4219095E-3,9.416111E-2,-1.4310931E-2,3.435439E-3,-6.55446E-2,4.1224357E-2,-2.066592E-2,-5.1580477E-3,4.2572554E-4,9.045568E-2],"categories":[],"categories_nodes":[],"categories_segments":[],"categories_sizes":[],"default_left":[0,0,0,0,0,0,0,0,0,0,0,0,0,0,0,0,0,0,0,0,0,0,0,0,0,0,0,0,0,0,0,0,0,0,0,0,0,0,0,0,0,0,0,0,0,0,0,0,0,0,0,0,0,0,0,0,0,0,0,0,0],"id":17,"left_children":[1,3,5,7,9,11,13,15,17,19,21,23,25,27,29,31,33,35,37,39,41,43,-1,45,47,49,51,53,55,57,59,-1,-1,-1,-1,-1,-1,-1,-1,-1,-1,-1,-1,-1,-1,-1,-1,-1,-1,-1,-1,-1,-1,-1,-1,-1,-1,-1,-1,-1,-1],"loss_changes":[4.144721E0,4.426952E0,4.3525314E0,4.629402E0,5.079623E0,6.940324E0,5.5623794E0,4.833276E0,6.2966814E0,4.907997E0,4.319749E0,5.9086747E0,8.955529E0,5.7604218E0,5.3869267E0,4.9614115E0,4.346111E0,4.2390245E-1,4.4380188E-1,4.586153E0,3.7414908E-1,2.6694493E0,0E0,5.2411942E0,5.143888E0,5.8971367E0,6.663747E0,5.139902E0,5.7883835E0,5.4400616E0,5.1526046E0,0E0,0E0,0E0,0E0,0E0,0E0,0E0,0E0,0E0,0E0,0E0,0E0,0E0,0E0,0E0,0E0,0E0,0E0,0E0,0E0,0E0,0E0,0E0,0E0,0E0,0E0,0E0,0E0,0E0,0E0],"parents":[2147483647,0,0,1,1,2,2,3,3,4,4,5,5,6,6,7,7,8,8,9,9,10,10,11,11,12,12,13,13,14,14,15,15,16,16,17,17,18,18,19,19,20,20,21,21,23,23,24,24,25,25,26,26,27,27,28,28,29,29,30,30],"right_children":[2,4,6,8,10,12,14,16,18,20,22,24,26,28,30,32,34,36,38,40,42,44,-1,46,48,50,52,54,56,58,60,-1,-1,-1,-1,-1,-1,-1,-1,-1,-1,-1,-1,-1,-1,-1,-1,-1,-1,-1,-1,-1,-1,-1,-1,-1,-1,-1,-1,-1,-1],"split_conditions":[3.1243255E-2,9.613485E-1,2.1175024E-1,9.886009E-1,5.722958E-1,8.21791E-1,4.8584247E-1,9.6969E-1,4.6658638E-1,7.140846E-1,2.8729507E-1,4.6628055E-1,3.4024578E-1,9.656544E-1,5.8035177E-1,3.5527065E-1,2.345431E-1,4.3825768E-2,4.301168E-1,7.728186E-1,4.2225322E-1,3.578998E-1,-1.0837717E-1,2.2697185E-1,1.3226454E-1,8.406366E-1,9.2905885E-1,1.0763949E-1,8.924478E-2,2.8300282E-1,9.922343E-1,3.2904994E-2,-6.001714E-3,-9.110894E-2,1.5647705E-1,3.6191877E-2,-8.746179E-2,9.086407E-2,3.305532E-1,2.8360996E-1,-7.091758E-2,3.5970405E-2,-8.157819E-2,-6.7251205E-2,2.5359964E-1,-2.899002E-2,-6.1707845E-4,-1.721913E-2,1.453784E-2,6.881113E-2,-2.3355372E-2,1.4219095E-3,9.416111E-2,-1.4310931E-2,3.435439E-3,-6.55446E-2,4.1224357E-2,-2.066592E-2,-5.1580477E-3,4.2572554E-4,9.045568E-2],"split_indices":[34,36,0,22,22,41,20,2,24,20,44,12,31,23,48,14,21,0,16,40,0,11,0,10,20,16,32,9,19,18,47,0,0,0,0,0,0,0,0,0,0,0,0,0,0,0,0,0,0,0,0,0,0,0,0,0,0,0,0,0,0],"split_type":[0,0,0,0,0,0,0,0,0,0,0,0,0,0,0,0,0,0,0,0,0,0,0,0,0,0,0,0,0,0,0,0,0,0,0,0,0,0,0,0,0,0,0,0,0,0,0,0,0,0,0,0,0,0,0,0,0,0,0,0,0],"sum_hessian":[1.92387E4,6.1324115E2,1.8625459E4,5.910488E2,2.2192291E1,3.9390754E3,1.4686384E4,5.832028E2,7.8460484E0,1.3233286E1,8.959005E0,3.2445366E3,6.945389E2,7.1391333E3,7.54725E3,5.661462E2,1.7056631E1,3.2599277E0,4.586121E0,1.0332306E1,2.90098E0,3.031003E0,5.928002E0,1.5119081E3,1.7326285E3,2.324473E2,4.6209158E2,6.8837104E3,2.5542282E2,4.385244E3,3.1620059E3,2.0441707E2,3.617291E2,2.7865644E0,1.4270067E1,1.0038518E0,2.2560759E0,1.396012E0,3.190109E0,9.035002E0,1.297304E0,1.0059853E0,1.8949946E0,1.0649661E0,1.9660368E0,3.3330554E2,1.1786024E3,2.3531888E2,1.4973097E3,2.0074765E2,3.1699638E1,4.2968744E2,3.2404144E1,7.2928345E2,6.1544272E3,2.1339394E1,2.3408342E2,1.2757639E3,3.1094805E3,3.1373699E3,2.4635904E1],"tree_param":{"num_deleted":"0","num_feature":"50","num_nodes":"61","size_leaf_vector":"1"}},{"base_weights":[-5.4155174E-3,-8.8959215E-3,6.505092E-2,2.5888424E-2,-1.6462758E-2,-4.1453657E-1,8.502804E-2,1.0525563E-1,2.5300481E-3,-1.4685788E-2,-2.472142E-1,3.9295655E-1,-4.8771137E-1,-3.6141712E-2,1.6475023E-1,3.052448E-1,5.2333564E-2,3.6062866E-2,-5.5469304E-2,5.822863E-2,-1.8911857E-2,6.8293226E-1,-2.9381904E-1,1.9335568E-1,-7.031372E-2,-5.4401165E-1,1.0408497E-1,-6.745021E-2,4.4588006E-1,2.6892748E-1,4.7084447E-2,-5.110392E-3,8.946829E-2,1.4835921E-1,7.721716E-3,1.997682E-3,3.369364E-2,-4.017726E-2,-2.1011473E-3,7.7702545E-2,7.049902E-3,-7.409969E-3,-4.0093405E-4,2.3125522E-1,-7.4787214E-2,-6.7702524E-2,6.0314935E-2,3.512295E-2,-1.1457195E-1,-1.9324265E-2,8.116444E-2,2.6898167E-1,-7.598184E-3,4.121755E-2,1.1560064E-1,-1.1921654E-2,7.030731E-2],"categories":[],"categories_nodes":[],"categories_segments":[],"categories_sizes":[],"default_left":[0,0,0,0,0,0,0,0,0,0,0,0,0,0,0,0,0,0,0,0,0,0,0,0,0,0,0,0,0,0,0,0,0,0,0,0,0,0,0,0,0,0,0,0,0,0,0,0,0,0,0,0,0,0,0,0,0],"id":18,"left_children":[1,3,5,7,9,11,13,15,17,19,21,23,25,27,29,31,33,35,37,39,41,43,45,-1,-1,47,-1,49,51,53,55,-1,-1,-1,-1,-1,-1,-1,-1,-1,-1,-1,-1,-1,-1,-1,-1,-1,-1,-1,-1,-1,-1,-1,-1,-1,-1],"loss_changes":[4.6934423E0,4.8000555E0,8.664926E0,6.0405264E0,6.137806E0,2.3300195E0,8.366993E0,7.825595E0,4.900268E0,4.5814133E0,5.159636E0,1.8611453E0,2.1918278E0,5.2260613E0,6.388974E0,7.2891216E0,5.5267477E0,5.5100017E0,6.0333023E0,6.1686187E0,4.30876E0,3.3134353E0,3.0195484E0,0E0,0E0,7.7195454E-1,0E0,4.514679E0,9.24323E0,5.256626E0,8.026487E0,0E0,0E0,0E0,0E0,0E0,0E0,0E0,0E0,0E0,0E0,0E0,0E0,0E0,0E0,0E0,0E0,0E0,0E0,0E0,0E0,0E0,0E0,0E0,0E0,0E0,0E0],"parents":[2147483647,0,0,1,1,2,2,3,3,4,4,5,5,6,6,7,7,8,8,9,9,10,10,11,11,12,12,13,13,14,14,15,15,16,16,17,17,18,18,19,19,20,20,21,21,22,22,25,25,27,27,28,28,29,29,30,30],"right_children":[2,4,6,8,10,12,14,16,18,20,22,24,26,28,30,32,34,36,38,40,42,44,46,-1,-1,48,-1,50,52,54,56,-1,-1,-1,-1,-1,-1,-1,-1,-1,-1,-1,-1,-1,-1,-1,-1,-1,-1,-1,-1,-1,-1,-1,-1,-1,-1],"split_conditions":[9.529316E-1,1.7306577E-1,3.6106095E-2,2.2597767E-1,9.913754E-1,7.162928E-2,4.1030633E-1,2.2404337E-1,6.361915E-1,5.3543642E-2,3.5607655E-2,4.7774413E-1,9.5272076E-1,9.392379E-1,5.15267E-1,3.1993708E-1,2.4314886E-2,8.3444124E-1,2.3776609E-1,6.8341136E-2,4.817267E-1,4.2425615E-1,9.4040227E-1,1.9335568E-1,-7.031372E-2,1.9814206E-2,1.0408497E-1,9.444165E-1,2.0165977E-1,8.366293E-1,7.521735E-1,-5.110392E-3,8.946829E-2,1.4835921E-1,7.721716E-3,1.997682E-3,3.369364E-2,-4.017726E-2,-2.1011473E-3,7.7702545E-2,7.049902E-3,-7.409969E-3,-4.0093405E-4,2.3125522E-1,-7.4787214E-2,-6.7702524E-2,6.0314935E-2,3.512295E-2,-1.1457195E-1,-1.9324265E-2,8.116444E-2,2.6898167E-1,-7.598184E-3,4.121755E-2,1.1560064E-1,-1.1921654E-2,7.030731E-2],"split_indices":[30,19,39,34,18,25,42,3,7,40,9,16,37,33,26,16,9,43,13,45,36,23,13,0,0,27,0,13,16,45,49,0,0,0,0,0,0,0,0,0,0,0,0,0,0,0,0,0,0,0,0,0,0,0,0,0,0],"split_type":[0,0,0,0,0,0,0,0,0,0,0,0,0,0,0,0,0,0,0,0,0,0,0,0,0,0,0,0,0,0,0,0,0,0,0,0,0,0,0,0,0,0,0,0,0,0,0,0,0,0,0,0,0,0,0,0,0],"sum_hessian":[1.9133887E4,1.8234158E4,8.997287E2,3.257443E3,1.4976715E4,3.5189495E1,8.645392E2,7.399002E2,2.5175427E3,1.4863319E4,1.1339573E2,2.5607865E0,3.2628708E1,3.433017E2,5.212375E2,1.5382759E2,5.8607263E2,1.5954805E3,9.220623E2,8.135728E2,1.4049746E4,4.7591047E0,1.0863662E2,1.2775975E0,1.283189E0,3.1338934E1,1.2897725E0,3.2317102E2,2.0130682E1,2.757831E2,2.4545439E2,4.646911E1,1.0735849E2,1.0403723E1,5.756689E2,1.3338768E3,2.6160364E2,2.169512E2,7.0511115E2,5.188669E1,7.6168616E2,6.777582E3,7.2721646E3,3.2219975E0,1.5371073E0,1.0145248E2,7.1841416E0,1.0117949E0,3.0327139E1,3.0515784E2,1.8013184E1,6.4210143E0,1.3709668E1,2.305713E2,4.521181E1,1.8235411E2,6.310028E1],"tree_param":{"num_deleted":"0","num_feature":"50","num_nodes":"57","size_leaf_vector":"1"}},{"base_weights":[2.1146866E-3,2.2382567E-2,-9.48126E-3,8.665628E-2,6.523627E-3,-1.7939271E-2,3.6837872E-2,3.0571738E-1,6.1973505E-2,3.580497E-2,-2.484244E-2,-2.0814562E-2,1.6288646E-1,5.547245E-2,-9.957202E-2,4.0787765E-1,-1.1161449E-1,1.1461138E-2,1.9276135E-1,1.00890145E-1,-6.8903685E-4,-1.513671E-1,-8.763089E-3,-5.8027394E-2,-9.212304E-3,1.1280635E-1,1.0028663E0,7.0528165E-2,-1.381602E-1,-1.9169417E-1,1.414864E-1,2.0099985E-3,1.0438311E-1,1.899862E-1,-3.957092E-2,8.0981397E-4,1.70709E-1,5.25481E-2,-1.7725226E-2,1.7225415E-2,7.558112E-2,-1.7347317E-3,7.9557836E-2,-7.120882E-3,-5.1415272E-2,1.5177147E-3,-2.9801205E-2,-1.2400459E-2,9.719639E-2,1.5761976E-3,-8.722221E-3,6.198098E-2,-1.9574288E-2,2.5374973E-1,-6.9492005E-2,-3.7693665E-3,2.1348074E-2,8.232984E-2,-3.859172E-2,8.470882E-2,-4.8520062E-2,-3.549223E-2,8.459622E-2],"categories":[],"categories_nodes":[],"categories_segments":[],"categories_sizes":[],"default_left":[0,0,0,0,0,0,0,0,0,0,0,0,0,0,0,0,0,0,0,0,0,0,0,0,0,0,0,0,0,0,0,0,0,0,0,0,0,0,0,0,0,0,0,0,0,0,0,0,0,0,0,0,0,0,0,0,0,0,0,0,0,0,0],"id":19,"left_children":[1,3,5,7,9,11,13,15,17,19,21,23,25,27,29,31,33,35,37,39,41,43,45,47,49,51,53,55,57,59,61,-1,-1,-1,-1,-1,-1,-1,-1,-1,-1,-1,-1,-1,-1,-1,-1,-1,-1,-1,-1,-1,-1,-1,-1,-1,-1,-1,-1,-1,-1,-1,-1],"loss_changes":[4.51748E0,7.1295347E0,4.790549E0,7.4659595E0,5.154916E0,5.3789997E0,4.8051376E0,6.01124E0,8.225166E0,6.8946576E0,5.511986E0,4.3939476E0,6.6991735E0,4.8545713E0,5.074602E0,5.1042194E0,2.778953E0,5.610562E0,6.854373E0,4.232317E0,5.924148E0,3.7293696E0,5.51742E0,5.260825E0,4.563302E0,6.4232893E0,3.6667414E0,4.994719E0,3.7018952E0,5.266492E0,5.7690964E0,0E0,0E0,0E0,0E0,0E0,0E0,0E0,0E0,0E0,0E0,0E0,0E0,0E0,0E0,0E0,0E0,0E0,0E0,0E0,0E0,0E0,0E0,0E0,0E0,0E0,0E0,0E0,0E0,0E0,0E0,0E0,0E0],"parents":[2147483647,0,0,1,1,2,2,3,3,4,4,5,5,6,6,7,7,8,8,9,9,10,10,11,11,12,12,13,13,14,14,15,15,16,16,17,17,18,18,19,19,20,20,21,21,22,22,23,23,24,24,25,25,26,26,27,27,28,28,29,29,30,30],"right_children":[2,4,6,8,10,12,14,16,18,20,22,24,26,28,30,32,34,36,38,40,42,44,46,48,50,52,54,56,58,60,62,-1,-1,-1,-1,-1,-1,-1,-1,-1,-1,-1,-1,-1,-1,-1,-1,-1,-1,-1,-1,-1,-1,-1,-1,-1,-1,-1,-1,-1,-1,-1,-1],"split_conditions":[3.6037344E-1,1.9299327E-1,8.4341836E-1,1.0148676E-1,5.1813364E-1,9.847404E-1,8.773745E-1,8.405774E-1,7.2751266E-1,3.5056812E-1,1.12531774E-1,2.4049032E-1,9.4384474E-1,9.2861766E-1,7.03404E-1,2.2992481E-1,3.5107233E-2,9.919153E-1,8.087763E-1,9.5375776E-1,9.80808E-1,5.262268E-1,8.9535844E-1,9.922499E-1,6.6563356E-1,5.4299974E-1,8.7376827E-1,2.8600788E-1,8.891675E-2,5.7196233E-2,4.895541E-1,2.0099985E-3,1.0438311E-1,1.899862E-1,-3.957092E-2,8.0981397E-4,1.70709E-1,5.25481E-2,-1.7725226E-2,1.7225415E-2,7.558112E-2,-1.7347317E-3,7.9557836E-2,-7.120882E-3,-5.1415272E-2,1.5177147E-3,-2.9801205E-2,-1.2400459E-2,9.719639E-2,1.5761976E-3,-8.722221E-3,6.198098E-2,-1.9574288E-2,2.5374973E-1,-6.9492005E-2,-3.7693665E-3,2.1348074E-2,8.232984E-2,-3.859172E-2,8.470882E-2,-4.8520062E-2,-3.549223E-2,8.459622E-2],"split_indices":[2,33,39,0,36,9,3,1,19,28,35,28,18,7,48,42,25,25,35,46,14,47,30,41,13,45,49,41,45,45,16,0,0,0,0,0,0,0,0,0,0,0,0,0,0,0,0,0,0,0,0,0,0,0,0,0,0,0,0,0,0,0,0],"split_type":[0,0,0,0,0,0,0,0,0,0,0,0,0,0,0,0,0,0,0,0,0,0,0,0,0,0,0,0,0,0,0,0,0,0,0,0,0,0,0,0,0,0,0,0,0,0,0,0,0,0,0,0,0,0,0,0,0,0,0,0,0,0,0],"sum_hessian":[1.921935E4,6.9940054E3,1.2225345E4,1.38329E3,5.610715E3,1.0338176E4,1.8871691E3,1.389262E2,1.2443639E3,2.901717E3,2.708998E3,1.0177233E4,1.6094217E2,1.6608749E3,2.2629414E2,1.1162398E2,2.730221E1,8.9845404E2,3.459098E2,1.041856E3,1.8598611E3,3.0450504E2,2.404493E3,2.4179504E3,7.759283E3,1.5295708E2,7.985096E0,1.5416418E3,1.192331E2,1.6387352E2,6.2420624E1,2.5110998E1,8.651298E1,1.2988966E0,2.6003313E1,8.9161084E2,6.8431993E0,2.7707053E2,6.883928E1,9.903859E2,5.1470062E1,1.8242847E3,3.5576393E1,1.4597928E2,1.5852576E2,2.1542622E3,2.5023088E2,2.401291E3,1.6659416E1,5.18403E3,2.5752532E3,7.878199E1,7.417509E1,6.721943E0,1.2631531E0,4.4466006E2,1.0969817E3,1.0216428E1,1.0901667E2,1.1963668E1,1.5190985E2,2.9436815E1,3.2983807E1],"tree_param":{"num_deleted":"0","num_feature":"50","num_nodes":"63","size_leaf_vector":"1"}},{"base_weights":[-2.3941868E-3,2.1175826E-1,-3.3203408E-3,3.457681E-1,-6.310442E-2,2.183899E-1,-4.2014066E-3,2.7048633E-1,2.1802787E-1,-3.4329727E-1,2.7957767E-1,-6.4438716E-2,4.523975E-1,-5.8696322E-2,-6.6082587E-4,1.229911E-1,6.825757E-1,-5.052809E-1,1.0622074E-1,-2.3088436E-1,6.600685E-1,4.1392142E-1,-3.0503199E-1,1.3761368E0,2.9361397E-1,-2.0507015E-1,-3.434499E-2,1.4145384E-2,-1.7165102E-2,4.358333E-2,-1.0296456E-1,-9.1347724E-2,1.9830975E-1,-1.1341862E-1,2.6616627E-2,-9.85603E-2,7.641758E-2,2.080318E-1,-2.9720375E-2,1.9086643E-1,-6.891697E-2,1.1496537E-1,-9.036375E-2,3.6558792E-1,5.7241715E-2,1.5834051E-1,7.1561323E-3,-1.6607968E-2,-8.6750396E-2,-1.1014956E-2,3.3185918E-2,1.3049709E-3,1.636413E-2,-1.6168883E-2,-1.2750638E-3],"categories":[],"categories_nodes":[],"categories_segments":[],"categories_sizes":[],"default_left":[0,0,0,0,0,0,0,0,0,0,0,0,0,0,0,0,0,0,0,0,0,0,0,0,0,0,0,0,0,0,0,0,0,0,0,0,0,0,0,0,0,0,0,0,0,0,0,0,0,0,0,0,0,0,0],"id":20,"left_children":[1,3,5,7,9,11,13,15,-1,17,19,21,23,25,27,29,31,33,-1,35,37,39,41,43,45,47,49,51,53,-1,-1,-1,-1,-1,-1,-1,-1,-1,-1,-1,-1,-1,-1,-1,-1,-1,-1,-1,-1,-1,-1,-1,-1,-1,-1],"loss_changes":[3.799397E0,3.0602396E0,3.7262986E0,2.8212194E0,2.773104E0,5.0264897E0,3.665239E0,3.0663285E0,0E0,2.5045953E0,2.6954858E0,4.161602E0,5.6747637E0,4.123804E0,4.359412E0,2.4969473E0,5.184524E0,6.213074E-1,0E0,1.2049705E0,2.5400164E0,5.312347E0,3.3470526E0,2.3367653E0,4.676667E0,4.5713043E0,4.1392746E0,4.849117E0,5.7957954E0,0E0,0E0,0E0,0E0,0E0,0E0,0E0,0E0,0E0,0E0,0E0,0E0,0E0,0E0,0E0,0E0,0E0,0E0,0E0,0E0,0E0,0E0,0E0,0E0,0E0,0E0],"parents":[2147483647,0,0,1,1,2,2,3,3,4,4,5,5,6,6,7,7,9,9,10,10,11,11,12,12,13,13,14,14,15,15,16,16,17,17,19,19,20,20,21,21,22,22,23,23,24,24,25,25,26,26,27,27,28,28],"right_children":[2,4,6,8,10,12,14,16,-1,18,20,22,24,26,28,30,32,34,-1,36,38,40,42,44,46,48,50,52,54,-1,-1,-1,-1,-1,-1,-1,-1,-1,-1,-1,-1,-1,-1,-1,-1,-1,-1,-1,-1,-1,-1,-1,-1,-1,-1],"split_conditions":[3.446261E-3,6.345826E-1,4.182547E-3,5.868189E-1,5.8035177E-1,4.9210477E-1,6.125846E-2,7.8665155E-1,2.1802787E-1,8.90208E-1,2.7797315E-1,3.2434592E-1,1.0481736E-1,1.4389549E-1,5.243588E-1,9.084425E-1,2.1829022E-1,9.522789E-1,1.0622074E-1,8.468255E-1,6.7941844E-1,6.123097E-1,1.3137528E-1,3.1858674E-1,3.2897893E-1,6.742308E-1,9.101002E-1,8.975512E-1,1.4366172E-1,4.358333E-2,-1.0296456E-1,-9.1347724E-2,1.9830975E-1,-1.1341862E-1,2.6616627E-2,-9.85603E-2,7.641758E-2,2.080318E-1,-2.9720375E-2,1.9086643E-1,-6.891697E-2,1.1496537E-1,-9.036375E-2,3.6558792E-1,5.7241715E-2,1.5834051E-1,7.1561323E-3,-1.6607968E-2,-8.6750396E-2,-1.1014956E-2,3.3185918E-2,1.3049709E-3,1.636413E-2,-1.6168883E-2,-1.2750638E-3],"split_indices":[7,29,8,29,48,42,45,5,0,23,12,33,15,21,27,1,40,13,0,38,2,38,24,41,20,5,43,11,33,0,0,0,0,0,0,0,0,0,0,0,0,0,0,0,0,0,0,0,0,0,0,0,0,0,0],"split_type":[0,0,0,0,0,0,0,0,0,0,0,0,0,0,0,0,0,0,0,0,0,0,0,0,0,0,0,0,0,0,0,0,0,0,0,0,0,0,0,0,0,0,0,0,0,0,0,0,0,0,0,0,0,0,0],"sum_hessian":[1.915162E4,8.148888E1,1.907013E4,5.4607105E1,2.688177E1,7.450667E1,1.8995623E4,5.0829823E1,3.7772832E0,1.4788339E1,1.20934305E1,3.4062428E1,4.044424E1,1.1579187E3,1.7837705E4,3.8388317E1,1.2441507E1,1.2833129E1,1.9552093E0,5.332545E0,6.7608857E0,1.1157695E1,2.2904734E1,4.8077745E0,3.5636467E1,1.6410086E2,9.938179E2,9.402626E3,8.435079E3,3.3988205E1,4.4001102E0,2.5522041E0,9.889303E0,1.1801999E1,1.03113E0,3.873487E0,1.4590578E0,4.404452E0,2.356434E0,6.3648067E0,4.7928877E0,2.8579202E0,2.0046812E1,2.9201708E0,1.8876038E0,1.1448801E1,2.4187666E1,1.0789078E2,5.621008E1,9.012566E2,9.2561226E1,8.451991E3,9.506346E2,1.2212131E3,7.213866E3],"tree_param":{"num_deleted":"0","num_feature":"50","num_nodes":"55","size_leaf_vector":"1"}},{"base_weights":[1.9032259E-3,9.69865E-2,-4.989148E-4,2.6326737E-1,4.0989213E-2,-3.6658267E-3,6.3185535E-2,1.5615846E-1,6.206434E-1,1.0929847E-1,-1.6033491E-1,4.6393666E-2,-8.410103E-3,1.362797E-1,-3.1227276E-2,3.4102118E-1,-1.8090764E-1,-9.607847E-2,7.792444E-1,1.3827454E-1,-1.14373825E-1,-1.8832031E-1,2.3037648E-1,3.922896E-2,5.430652E-1,4.218182E-2,-1.3896503E-2,5.673053E-1,1.0466519E-1,2.0188223E-1,-9.5004305E-2,1.14126086E-1,-1.1579041E-2,-7.482307E-2,1.4817263E-1,1.9145998E-1,-2.3053925E-2,1.2555054E-2,7.599487E-2,-6.852373E-2,1.0454168E-2,4.9426616E-3,5.4849453E-2,-3.5624456E-2,1.7995286E-1,6.544368E-3,8.741001E-2,-6.456781E-3,8.9796074E-4,-4.5073062E-2,1.6432332E-1,1.4762374E-2,9.79573E-2,2.6360616E-1,2.605255E-2,7.6810025E-2,-2.5058923E-2],"categories":[],"categories_nodes":[],"categories_segments":[],"categories_sizes":[],"default_left":[0,0,0,0,0,0,0,0,0,0,0,0,0,0,0,0,0,0,0,0,0,0,0,0,0,0,0,0,0,0,0,0,0,0,0,0,0,0,0,0,0,0,0,0,0,0,0,0,0,0,0,0,0,0,0,0,0],"id":21,"left_children":[1,3,5,7,9,11,13,15,17,19,21,23,25,27,29,31,33,-1,35,37,-1,39,-1,41,43,45,47,49,51,53,55,-1,-1,-1,-1,-1,-1,-1,-1,-1,-1,-1,-1,-1,-1,-1,-1,-1,-1,-1,-1,-1,-1,-1,-1,-1,-1],"loss_changes":[4.390847E0,4.3999715E0,3.7820256E0,4.464016E0,4.907137E0,4.2429795E0,6.134737E0,5.857388E0,5.1136827E0,5.3306103E0,3.5396318E0,5.4822702E0,4.529998E0,6.766059E0,5.794362E0,5.566726E0,6.260672E0,0E0,3.9494963E0,4.6479864E0,0E0,3.3385675E0,0E0,5.1980014E0,5.7978926E0,5.9502172E0,4.977474E0,7.039447E0,5.5233974E0,6.5245442E0,4.483865E0,0E0,0E0,0E0,0E0,0E0,0E0,0E0,0E0,0E0,0E0,0E0,0E0,0E0,0E0,0E0,0E0,0E0,0E0,0E0,0E0,0E0,0E0,0E0,0E0,0E0,0E0],"parents":[2147483647,0,0,1,1,2,2,3,3,4,4,5,5,6,6,7,7,8,8,9,9,10,10,11,11,12,12,13,13,14,14,15,15,16,16,18,18,19,19,21,21,23,23,24,24,25,25,26,26,27,27,28,28,29,29,30,30],"right_children":[2,4,6,8,10,12,14,16,18,20,22,24,26,28,30,32,34,-1,36,38,-1,40,-1,42,44,46,48,50,52,54,56,-1,-1,-1,-1,-1,-1,-1,-1,-1,-1,-1,-1,-1,-1,-1,-1,-1,-1,-1,-1,-1,-1,-1,-1,-1,-1],"split_conditions":[2.1999523E-2,2.511182E-1,9.5203334E-1,7.9662323E-1,7.432078E-1,8.367327E-2,5.626554E-1,5.13547E-1,9.46712E-2,9.5179373E-1,9.9248576E-1,9.871345E-1,9.639099E-2,5.8719337E-2,2.3283157E-1,5.402298E-1,8.647353E-1,-9.607847E-2,8.2798E-1,7.4503785E-1,-1.14373825E-1,5.9362155E-1,2.3037648E-1,9.39402E-1,2.8936356E-1,9.8096925E-1,5.001116E-1,2.0023265E-1,9.053272E-1,2.7165608E-2,6.1233383E-2,1.14126086E-1,-1.1579041E-2,-7.482307E-2,1.4817263E-1,1.9145998E-1,-2.3053925E-2,1.2555054E-2,7.599487E-2,-6.852373E-2,1.0454168E-2,4.9426616E-3,5.4849453E-2,-3.5624456E-2,1.7995286E-1,6.544368E-3,8.741001E-2,-6.456781E-3,8.9796074E-4,-4.5073062E-2,1.6432332E-1,1.4762374E-2,9.79573E-2,2.6360616E-1,2.605255E-2,7.6810025E-2,-2.5058923E-2],"split_indices":[49,1,35,36,11,4,6,36,3,33,17,38,16,11,29,17,43,0,8,35,0,43,0,18,15,2,6,5,25,31,13,0,0,0,0,0,0,0,0,0,0,0,0,0,0,0,0,0,0,0,0,0,0,0,0,0,0],"split_type":[0,0,0,0,0,0,0,0,0,0,0,0,0,0,0,0,0,0,0,0,0,0,0,0,0,0,0,0,0,0,0,0,0,0,0,0,0,0,0,0,0,0,0,0,0,0,0,0,0,0,0,0,0,0,0,0,0],"sum_hessian":[1.9222875E4,4.727011E2,1.8750174E4,1.1815247E2,3.5454865E2,1.786283E4,8.873437E2,9.201244E1,2.6140026E1,2.6506815E2,8.94805E1,1.5455973E3,1.6317233E4,4.998881E2,3.8745557E2,5.9414845E1,3.25976E1,3.0358315E0,2.3104195E1,2.5501703E2,1.0051119E1,8.8450615E1,1.0298824E0,1.524682E3,2.0915226E1,1.5957355E3,1.4721498E4,3.300195E1,4.6688614E2,8.276785E1,3.046877E2,3.743657E1,2.1978277E1,2.7440145E1,5.1574554E0,1.9210169E1,3.8940258E0,1.9527814E2,5.973889E1,5.3631226E1,3.481939E1,1.4370305E3,8.765148E1,7.087034E0,1.3828192E1,1.559458E3,3.627755E1,7.3601514E3,7.3613467E3,8.043798E0,2.4958153E1,4.3335992E2,3.3526215E1,3.9413247E0,7.882653E1,1.7424986E1,2.8726273E2],"tree_param":{"num_deleted":"0","num_feature":"50","num_nodes":"57","size_leaf_vector":"1"}},{"base_weights":[3.3473556E-3,4.2090663E-3,-2.1248403E-1,3.0517694E-2,-3.1820645E-3,-2.9601592E-1,8.5123384E-1,-2.677834E-1,3.5451468E-2,3.3274645E-1,-4.443058E-3,-3.5922566E-1,3.967839E-1,2.9242566E-1,-2.2634316E-2,3.050011E-1,-3.5076243E-1,2.746692E-2,1.9669195E-1,6.000842E-1,-2.6048034E-1,-1.394618E-3,-1.1429577E-1,4.800301E-1,-4.0925154E-1,-2.6183668E-1,2.511046E-1,1.9466396E-1,-6.564267E-2,-7.911643E-2,1.9215225E-1,5.635887E-2,4.482437E-3,9.758999E-2,2.151341E-2,-7.426441E-2,1.5368843E-1,-1.14031196E-1,3.8772214E-2,1.8640615E-2,-1.0034384E-3,-1.3970745E-2,-6.821526E-2,2.3241904E-1,-7.687238E-2,-9.008921E-2,9.657808E-2,1.9645728E-2,-8.633935E-2],"categories":[],"categories_nodes":[],"categories_segments":[],"categories_sizes":[],"default_left":[0,0,0,0,0,0,0,0,0,0,0,0,0,0,0,0,0,0,0,0,0,0,0,0,0,0,0,0,0,0,0,0,0,0,0,0,0,0,0,0,0,0,0,0,0,0,0,0,0],"id":22,"left_children":[1,3,5,7,9,11,13,15,17,19,21,23,25,-1,-1,27,29,31,33,35,37,39,41,43,45,47,-1,-1,-1,-1,-1,-1,-1,-1,-1,-1,-1,-1,-1,-1,-1,-1,-1,-1,-1,-1,-1,-1,-1],"loss_changes":[3.580892E0,3.7283685E0,7.055162E0,6.198577E0,6.342448E0,3.2838311E0,3.6018667E0,3.36455E0,5.3216267E0,9.036413E0,4.994272E0,2.9783478E0,3.9895988E0,0E0,0E0,4.2160125E0,3.9264278E0,5.063472E0,5.0111446E0,6.6474485E0,2.656032E0,4.973693E0,4.034654E0,2.9155633E0,2.535513E0,3.1705478E-1,0E0,0E0,0E0,0E0,0E0,0E0,0E0,0E0,0E0,0E0,0E0,0E0,0E0,0E0,0E0,0E0,0E0,0E0,0E0,0E0,0E0,0E0,0E0],"parents":[2147483647,0,0,1,1,2,2,3,3,4,4,5,5,6,6,7,7,8,8,9,9,10,10,11,11,12,12,15,15,16,16,17,17,18,18,19,19,20,20,21,21,22,22,23,23,24,24,25,25],"right_children":[2,4,6,8,10,12,14,16,18,20,22,24,26,-1,-1,28,30,32,34,36,38,40,42,44,46,48,-1,-1,-1,-1,-1,-1,-1,-1,-1,-1,-1,-1,-1,-1,-1,-1,-1,-1,-1,-1,-1,-1,-1],"split_conditions":[9.957507E-1,2.185226E-1,9.0533745E-1,1.5674563E-2,3.9880467E-3,9.3762475E-1,6.1087316E-1,1.7443243E-1,9.519731E-1,7.701885E-1,9.713819E-1,6.0408056E-2,6.2335384E-1,2.9242566E-1,-2.2634316E-2,4.049531E-1,9.772651E-1,2.0031145E-2,2.3351113E-1,1.1545663E-1,9.282996E-1,3.4458797E-2,8.419099E-1,7.1102744E-1,9.694131E-1,9.904378E-2,2.511046E-1,1.9466396E-1,-6.564267E-2,-7.911643E-2,1.9215225E-1,5.635887E-2,4.482437E-3,9.758999E-2,2.151341E-2,-7.426441E-2,1.5368843E-1,-1.14031196E-1,3.8772214E-2,1.8640615E-2,-1.0034384E-3,-1.3970745E-2,-6.821526E-2,2.3241904E-1,-7.687238E-2,-9.008921E-2,9.657808E-2,1.9645728E-2,-8.633935E-2],"split_indices":[9,34,23,33,33,29,28,26,1,48,37,10,46,0,0,17,19,29,38,19,48,21,43,26,0,18,0,0,0,0,0,0,0,0,0,0,0,0,0,0,0,0,0,0,0,0,0,0,0],"split_type":[0,0,0,0,0,0,0,0,0,0,0,0,0,0,0,0,0,0,0,0,0,0,0,0,0,0,0,0,0,0,0,0,0,0,0,0,0,0,0,0,0,0,0,0,0,0,0,0,0],"sum_hessian":[1.9247936E4,1.917237E4,7.556554E1,4.204255E3,1.4968114E4,7.0732735E1,4.8328023E0,6.753837E1,4.1367163E3,5.499342E1,1.4913121E4,6.5260025E1,5.472711E0,2.642708E0,2.1900942E0,8.207602E0,5.933077E1,3.9426487E3,1.9406763E2,3.790153E1,1.709189E1,1.45114375E4,4.0168326E2,3.187614E0,6.2072407E1,3.490625E0,1.9820863E0,3.7318037E0,4.475797E0,5.8045513E1,1.2852535E0,7.5765816E1,3.8668828E3,4.4422165E1,1.4964546E2,5.420471E0,3.248106E1,1.0012524E1,7.079366E0,5.3430084E2,1.3977137E4,3.3695786E2,6.472542E1,1.5892097E0,1.5984042E0,5.9805973E1,2.2664356E0,1.254043E0,2.236582E0],"tree_param":{"num_deleted":"0","num_feature":"50","num_nodes":"49","size_leaf_vector":"1"}},{"base_weights":[-4.7412217E-3,4.2188924E-2,-9.70993E-3,-7.374559E-3,9.222791E-2,-2.983812E-2,2.591792E-3,1.2177093E-1,-4.653332E-2,1.23885445E-1,-1.5027675E-1,-6.2777005E-2,-4.6841833E-3,1.1113128E-2,-5.592144E-2,3.0978277E-1,-4.0276106E-2,3.0999464E-1,-6.662407E-2,9.363871E-2,3.951567E-1,-1.8807279E-1,1.0864092E0,-4.0402863E-2,-1.3113946E-1,9.264744E-2,-2.4197042E-2,2.7783911E-3,8.592943E-2,8.554925E-1,-6.0686983E-2,2.4051735E-2,1.3290665E-1,7.279144E-2,-2.9686136E-2,2.361498E-3,1.9965191E-1,-8.628213E-2,-9.407508E-3,1.1724293E-1,1.564679E-2,1.7751043E-1,3.944043E-2,-4.8519034E-2,7.2257854E-2,3.6119014E-2,2.812264E-1,-1.1469034E-2,2.0122977E-2,-3.692965E-2,4.8760395E-3,4.990409E-2,-5.8973493E-4,-9.399573E-3,8.681686E-3,-1.228099E-5,4.6196725E-2,3.5946425E-2,2.2562689E-3,-9.041255E-2,3.3786258E-1,-6.7709335E-3,-3.5383772E-2],"categories":[],"categories_nodes":[],"categories_segments":[],"categories_sizes":[],"default_left":[0,0,0,0,0,0,0,0,0,0,0,0,0,0,0,0,0,0,0,0,0,0,0,0,0,0,0,0,0,0,0,0,0,0,0,0,0,0,0,0,0,0,0,0,0,0,0,0,0,0,0,0,0,0,0,0,0,0,0,0,0,0,0],"id":23,"left_children":[1,3,5,7,9,11,13,15,17,19,21,23,25,27,29,31,33,35,37,39,41,43,45,47,49,51,53,55,57,59,61,-1,-1,-1,-1,-1,-1,-1,-1,-1,-1,-1,-1,-1,-1,-1,-1,-1,-1,-1,-1,-1,-1,-1,-1,-1,-1,-1,-1,-1,-1,-1,-1],"loss_changes":[4.4582243E0,4.5403795E0,4.280748E0,4.660888E0,7.0118957E0,5.4332294E0,5.35118E0,6.5460787E0,5.0853176E0,6.5786686E0,5.141975E0,4.337822E0,7.0662975E0,5.841195E0,5.9774456E0,6.6022434E0,5.1282682E0,7.765567E0,4.7680225E0,5.4684873E0,7.6785154E0,3.1834323E0,6.960738E-1,5.1203785E0,5.8273554E0,9.318789E0,4.779186E0,5.462948E0,6.5726438E0,8.572729E0,4.229623E0,0E0,0E0,0E0,0E0,0E0,0E0,0E0,0E0,0E0,0E0,0E0,0E0,0E0,0E0,0E0,0E0,0E0,0E0,0E0,0E0,0E0,0E0,0E0,0E0,0E0,0E0,0E0,0E0,0E0,0E0,0E0,0E0],"parents":[2147483647,0,0,1,1,2,2,3,3,4,4,5,5,6,6,7,7,8,8,9,9,10,10,11,11,12,12,13,13,14,14,15,15,16,16,17,17,18,18,19,19,20,20,21,21,22,22,23,23,24,24,25,25,26,26,27,27,28,28,29,29,30,30],"right_children":[2,4,6,8,10,12,14,16,18,20,22,24,26,28,30,32,34,36,38,40,42,44,46,48,50,52,54,56,58,60,62,-1,-1,-1,-1,-1,-1,-1,-1,-1,-1,-1,-1,-1,-1,-1,-1,-1,-1,-1,-1,-1,-1,-1,-1,-1,-1,-1,-1,-1,-1,-1,-1],"split_conditions":[9.403106E-2,5.11665E-1,4.3280298E-1,2.1829022E-1,8.853336E-1,4.3423682E-1,8.7480605E-1,4.7941327E-1,5.029025E-2,7.945246E-1,9.64249E-1,7.554265E-1,1.6592671E-1,8.9501643E-1,4.0192003E-3,6.19623E-1,2.058616E-1,7.3485565E-1,9.279698E-2,3.0778714E-2,2.2904222E-1,9.10965E-1,4.952929E-1,8.99168E-1,7.4011743E-1,3.6448112E-1,7.489002E-1,9.883781E-1,4.3263775E-1,5.281876E-1,8.187122E-1,2.4051735E-2,1.3290665E-1,7.279144E-2,-2.9686136E-2,2.361498E-3,1.9965191E-1,-8.628213E-2,-9.407508E-3,1.1724293E-1,1.564679E-2,1.7751043E-1,3.944043E-2,-4.8519034E-2,7.2257854E-2,3.6119014E-2,2.812264E-1,-1.1469034E-2,2.0122977E-2,-3.692965E-2,4.8760395E-3,4.990409E-2,-5.8973493E-4,-9.399573E-3,8.681686E-3,-1.228099E-5,4.6196725E-2,3.5946425E-2,2.2562689E-3,-9.041255E-2,3.3786258E-1,-6.7709335E-3,-3.5383772E-2],"split_indices":[37,14,37,40,21,10,27,26,48,21,48,49,45,45,24,1,38,31,48,8,27,34,13,16,42,17,39,13,26,17,23,0,0,0,0,0,0,0,0,0,0,0,0,0,0,0,0,0,0,0,0,0,0,0,0,0,0,0,0,0,0,0,0],"split_type":[0,0,0,0,0,0,0,0,0,0,0,0,0,0,0,0,0,0,0,0,0,0,0,0,0,0,0,0,0,0,0,0,0,0,0,0,0,0,0,0,0,0,0,0,0,0,0,0,0,0,0,0,0,0,0,0,0,0,0,0,0,0,0],"sum_hessian":[1.9116305E4,1.8294452E3,1.728686E4,9.195179E2,9.099273E2,6.5569277E3,1.0729932E4,2.1345015E2,7.0606775E2,8.052906E2,1.046367E2,2.8384731E3,3.7184543E3,9.366665E3,1.363266E3,9.8386955E1,1.1506319E2,3.689547E1,6.6917224E2,7.2571826E2,7.957237E1,1.0235638E2,2.280329E0,2.1397515E3,6.987218E2,6.203506E2,3.0981038E3,8.428721E3,9.379449E2,6.162522E0,1.3571035E3,6.499996E1,3.3386993E1,2.3788244E1,9.127495E1,2.6452303E1,1.0443165E1,3.3027634E1,6.3614465E2,2.0884071E1,7.0483417E2,2.1818089E1,5.775428E1,9.3623E1,8.733372E0,1.0031447E0,1.2771842E0,1.9107781E3,2.2897337E2,5.19718E2,1.790038E2,2.3428284E2,3.8606775E2,2.3169778E3,7.811261E2,8.326109E3,1.0261075E2,4.1502158E2,5.2292334E2,2.5778728E0,3.584649E0,1.1036218E3,2.534816E2],"tree_param":{"num_deleted":"0","num_feature":"50","num_nodes":"63","size_leaf_vector":"1"}},{"base_weights":[1.8452125E-3,-1.4506085E-3,6.823094E-2,-1.8644045E-1,-1.1050614E-5,1.7215781E-1,8.792386E-3,-2.1955046E-1,5.0927716E-1,-1.2680006E-1,2.0098847E-3,4.2684317E-1,1.0133475E-1,2.7573213E-2,-3.7971908E-1,5.267453E-1,-2.506903E-1,2.4956445E-1,-2.3665841E-1,9.524663E-1,-1.4220572E-1,-7.056239E-2,5.5401227E-3,-1.7563598E-2,6.837425E-1,1.6537973E-1,-3.197072E-1,-2.7243437E-2,1.6827011E-1,3.7683102E-1,-5.531011E-1,-8.129669E-2,2.1732874E-1,-8.309222E-2,-2.3852365E-2,1.9966163E-2,-8.276052E-2,1.25094E-2,2.7014926E-1,-6.634666E-2,-8.143415E-3,-1.7749093E-2,7.551436E-2,2.7835926E-3,-4.5780307E-3,1.4452845E-1,-5.335905E-2,3.352192E-1,9.133058E-2,7.1169846E-2,2.7852904E-3,-8.3169155E-2,9.589078E-2,-1.0197337E-2,7.384399E-2,1.0136364E-2,9.423854E-2,-8.810967E-2,2.1703544E-1,-1.1932522E-1,1.8458502E-2],"categories":[],"categories_nodes":[],"categories_segments":[],"categories_sizes":[],"default_left":[0,0,0,0,0,0,0,0,0,0,0,0,0,0,0,0,0,0,0,0,0,0,0,0,0,0,0,0,0,0,0,0,0,0,0,0,0,0,0,0,0,0,0,0,0,0,0,0,0,0,0,0,0,0,0,0,0,0,0,0,0],"id":24,"left_children":[1,3,5,7,9,11,13,15,17,19,21,23,25,27,29,31,33,-1,35,37,39,41,43,45,47,49,51,53,55,57,59,-1,-1,-1,-1,-1,-1,-1,-1,-1,-1,-1,-1,-1,-1,-1,-1,-1,-1,-1,-1,-1,-1,-1,-1,-1,-1,-1,-1,-1,-1],"loss_changes":[4.206405E0,4.8777504E0,5.615615E0,3.369801E0,4.657553E0,5.9234495E0,4.239054E0,3.2858558E0,4.0009913E0,4.8771663E0,4.584246E0,8.193438E0,7.0674725E0,4.2753215E0,3.7226183E0,3.4504433E0,2.7862568E0,0E0,2.9089057E-1,1.3840921E0,5.4115357E0,6.797057E0,4.0644207E0,5.2154617E0,9.473709E0,6.5273747E0,2.8642702E0,3.7780106E0,5.5112376E0,3.7144911E0,6.787033E-1,0E0,0E0,0E0,0E0,0E0,0E0,0E0,0E0,0E0,0E0,0E0,0E0,0E0,0E0,0E0,0E0,0E0,0E0,0E0,0E0,0E0,0E0,0E0,0E0,0E0,0E0,0E0,0E0,0E0,0E0],"parents":[2147483647,0,0,1,1,2,2,3,3,4,4,5,5,6,6,7,7,8,8,9,9,10,10,11,11,12,12,13,13,14,14,15,15,16,16,18,18,19,19,20,20,21,21,22,22,23,23,24,24,25,25,26,26,27,27,28,28,29,29,30,30],"right_children":[2,4,6,8,10,12,14,16,18,20,22,24,26,28,30,32,34,-1,36,38,40,42,44,46,48,50,52,54,56,58,60,-1,-1,-1,-1,-1,-1,-1,-1,-1,-1,-1,-1,-1,-1,-1,-1,-1,-1,-1,-1,-1,-1,-1,-1,-1,-1,-1,-1,-1,-1],"split_conditions":[9.5272076E-1,7.697573E-3,3.549193E-1,9.686774E-1,1.591192E-2,2.3252569E-1,9.582619E-1,2.7154403E-2,3.9858213E-1,7.6431367E-3,4.563776E-2,3.095219E-1,8.773898E-1,7.28773E-1,1.0552004E-1,2.4952106E-1,4.6059802E-1,2.4956445E-1,3.4686235E-1,2.896142E-1,3.5909143E-1,9.648738E-1,7.7443683E-1,2.5968528E-1,1.889979E-1,4.4971547E-1,9.0542006E-1,9.358659E-1,7.664163E-1,3.3190584E-1,9.160202E-1,-8.129669E-2,2.1732874E-1,-8.309222E-2,-2.3852365E-2,1.9966163E-2,-8.276052E-2,1.25094E-2,2.7014926E-1,-6.634666E-2,-8.143415E-3,-1.7749093E-2,7.551436E-2,2.7835926E-3,-4.5780307E-3,1.4452845E-1,-5.335905E-2,3.352192E-1,9.133058E-2,7.1169846E-2,2.7852904E-3,-8.3169155E-2,9.589078E-2,-1.0197337E-2,7.384399E-2,1.0136364E-2,9.423854E-2,-8.810967E-2,2.1703544E-1,-1.1932522E-1,1.8458502E-2],"split_indices":[37,15,6,11,43,44,14,37,8,38,49,13,21,36,32,8,26,0,42,42,10,28,11,24,17,39,44,41,16,0,3,0,0,0,0,0,0,0,0,0,0,0,0,0,0,0,0,0,0,0,0,0,0,0,0,0,0,0,0,0,0],"split_type":[0,0,0,0,0,0,0,0,0,0,0,0,0,0,0,0,0,0,0,0,0,0,0,0,0,0,0,0,0,0,0,0,0,0,0,0,0,0,0,0,0,0,0,0,0,0,0,0,0,0,0,0,0,0,0,0,0,0,0,0,0],"sum_hessian":[1.9223832E4,1.831551E4,9.083233E2,1.4043512E2,1.8175074E4,3.297926E2,5.785307E2,1.347086E2,5.726513E0,2.8418512E2,1.7890889E4,7.066145E1,2.5913113E2,5.5274E2,2.5790682E1,4.7582088E0,1.299504E2,2.5394218E0,3.1870909E0,3.1434066E0,2.8104172E2,8.2904047E2,1.7061848E4,2.6225662E1,4.4435795E1,2.2544566E2,3.368548E1,3.983471E2,1.543929E2,4.589789E0,2.1200893E1,1.8869983E0,2.8712103E0,5.670221E1,7.3248184E1,1.2497007E0,1.9373903E0,1.3295947E0,1.8138119E0,9.721898E1,1.8382274E2,